digraph Tree {
node [shape=box, style="filled, rounded", color="black", fontname=helvetica] ;
edge [fontname=helvetica] ;
0 [label="IPV4_SRC_ADDR <= 0.591\ngini = 0.77\nsamples = 6334\nvalue = [3428, 2372, 1945, 1240, 685, 155, 95, 123, 7]", fillcolor="#fbeee4"] ;
1 [label="OUT_BYTES <= 0.003\ngini = 0.127\nsamples = 1143\nvalue = [0, 0, 1686, 0, 0, 0, 0, 123, 0]", fillcolor="#6fe747"] ;
0 -> 1 [labeldistance=2.5, labelangle=45, headlabel="True"] ;
2 [label="L4_SRC_PORT <= 0.98\ngini = 0.004\nsamples = 957\nvalue = [0, 0, 1510, 0, 0, 0, 0, 3, 0]", fillcolor="#64e539"] ;
1 -> 2 ;
3 [label="gini = 0.0\nsamples = 944\nvalue = [0, 0, 1494, 0, 0, 0, 0, 0, 0]", fillcolor="#64e539"] ;
2 -> 3 ;
4 [label="gini = 0.266\nsamples = 13\nvalue = [0, 0, 16, 0, 0, 0, 0, 3, 0]", fillcolor="#81ea5e"] ;
2 -> 4 ;
5 [label="TCP_FLAGS <= 0.742\ngini = 0.482\nsamples = 186\nvalue = [0, 0, 176, 0, 0, 0, 0, 120, 0]", fillcolor="#cef7c0"] ;
1 -> 5 ;
6 [label="IN_PKTS <= 0.005\ngini = 0.077\nsamples = 79\nvalue = [0, 0, 5, 0, 0, 0, 0, 120, 0]", fillcolor="#e641d9"] ;
5 -> 6 ;
7 [label="gini = 0.0\nsamples = 5\nvalue = [0, 0, 5, 0, 0, 0, 0, 0, 0]", fillcolor="#64e539"] ;
6 -> 7 ;
8 [label="gini = 0.0\nsamples = 74\nvalue = [0, 0, 0, 0, 0, 0, 0, 120, 0]", fillcolor="#e539d7"] ;
6 -> 8 ;
9 [label="gini = 0.0\nsamples = 107\nvalue = [0, 0, 171, 0, 0, 0, 0, 0, 0]", fillcolor="#64e539"] ;
5 -> 9 ;
10 [label="IPV4_SRC_ADDR <= 0.652\ngini = 0.713\nsamples = 5191\nvalue = [3428, 2372, 259, 1240, 685, 155, 95, 0, 7]", fillcolor="#fae8db"] ;
0 -> 10 [labeldistance=2.5, labelangle=-45, headlabel="False"] ;
11 [label="L4_DST_PORT <= 0.004\ngini = 0.61\nsamples = 2493\nvalue = [856, 2222, 0, 618, 0, 155, 95, 0, 6]", fillcolor="#edf4a8"] ;
10 -> 11 ;
12 [label="IPV4_DST_ADDR <= 0.268\ngini = 0.714\nsamples = 1683\nvalue = [856, 959, 0, 618, 0, 155, 95, 0, 6]", fillcolor="#fdfef4"] ;
11 -> 12 ;
13 [label="IPV4_DST_ADDR <= 0.205\ngini = 0.707\nsamples = 1493\nvalue = [644, 959, 0, 529, 0, 134, 95, 0, 6]", fillcolor="#f8fadb"] ;
12 -> 13 ;
14 [label="IN_PKTS <= 0.003\ngini = 0.195\nsamples = 78\nvalue = [109, 2, 0, 10, 0, 0, 0, 0, 1]", fillcolor="#e89050"] ;
13 -> 14 ;
15 [label="L4_SRC_PORT <= 0.538\ngini = 0.146\nsamples = 75\nvalue = [106, 2, 0, 7, 0, 0, 0, 0, 0]", fillcolor="#e78c4a"] ;
14 -> 15 ;
16 [label="gini = 0.48\nsamples = 3\nvalue = [2, 0, 0, 3, 0, 0, 0, 0, 0]", fillcolor="#bdf6d5"] ;
15 -> 16 ;
17 [label="FLOW_DURATION_MILLISECONDS <= 0.0\ngini = 0.104\nsamples = 72\nvalue = [104, 2, 0, 4, 0, 0, 0, 0, 0]", fillcolor="#e68844"] ;
15 -> 17 ;
18 [label="gini = 0.312\nsamples = 21\nvalue = [27, 2, 0, 4, 0, 0, 0, 0, 0]", fillcolor="#ea9b62"] ;
17 -> 18 ;
19 [label="gini = 0.0\nsamples = 51\nvalue = [77, 0, 0, 0, 0, 0, 0, 0, 0]", fillcolor="#e58139"] ;
17 -> 19 ;
20 [label="gini = 0.612\nsamples = 3\nvalue = [3, 0, 0, 3, 0, 0, 0, 0, 1]", fillcolor="#ffffff"] ;
14 -> 20 ;
21 [label="IPV4_DST_ADDR <= 0.259\ngini = 0.703\nsamples = 1415\nvalue = [535, 957, 0, 519, 0, 134, 95, 0, 5]", fillcolor="#f5f9ce"] ;
13 -> 21 ;
22 [label="TCP_FLAGS <= 0.032\ngini = 0.715\nsamples = 1295\nvalue = [535, 797, 0, 519, 0, 110, 95, 0, 5]", fillcolor="#f8fbdd"] ;
21 -> 22 ;
23 [label="IN_PKTS <= 0.0\ngini = 0.646\nsamples = 206\nvalue = [35, 170, 0, 3, 0, 28, 95, 0, 5]", fillcolor="#f3f7c1"] ;
22 -> 23 ;
24 [label="IN_BYTES <= 0.0\ngini = 0.556\nsamples = 164\nvalue = [2, 151, 0, 3, 0, 23, 79, 0, 0]", fillcolor="#eff5af"] ;
23 -> 24 ;
25 [label="gini = 0.0\nsamples = 1\nvalue = [1, 0, 0, 0, 0, 0, 0, 0, 0]", fillcolor="#e58139"] ;
24 -> 25 ;
26 [label="L4_SRC_PORT <= 0.905\ngini = 0.552\nsamples = 163\nvalue = [1, 151, 0, 3, 0, 23, 79, 0, 0]", fillcolor="#eff4af"] ;
24 -> 26 ;
27 [label="OUT_BYTES <= 0.0\ngini = 0.565\nsamples = 155\nvalue = [1, 137, 0, 3, 0, 23, 76, 0, 0]", fillcolor="#f0f5b5"] ;
26 -> 27 ;
28 [label="IN_BYTES <= 0.0\ngini = 0.542\nsamples = 76\nvalue = [1, 70, 0, 1, 0, 10, 34, 0, 0]", fillcolor="#edf4a8"] ;
27 -> 28 ;
29 [label="L4_SRC_PORT <= 0.878\ngini = 0.55\nsamples = 73\nvalue = [1, 66, 0, 1, 0, 10, 33, 0, 0]", fillcolor="#eef4ab"] ;
28 -> 29 ;
30 [label="FLOW_DURATION_MILLISECONDS <= 0.0\ngini = 0.53\nsamples = 71\nvalue = [1, 66, 0, 1, 0, 10, 27, 0, 0]", fillcolor="#ebf29c"] ;
29 -> 30 ;
31 [label="L4_SRC_PORT <= 0.854\ngini = 0.512\nsamples = 67\nvalue = [1, 65, 0, 1, 0, 9, 24, 0, 0]", fillcolor="#e9f194"] ;
30 -> 31 ;
32 [label="L4_SRC_PORT <= 0.839\ngini = 0.545\nsamples = 62\nvalue = [1, 55, 0, 1, 0, 9, 24, 0, 0]", fillcolor="#ecf3a2"] ;
31 -> 32 ;
33 [label="L4_SRC_PORT <= 0.793\ngini = 0.519\nsamples = 61\nvalue = [1, 55, 0, 1, 0, 6, 24, 0, 0]", fillcolor="#ebf29e"] ;
32 -> 33 ;
34 [label="L4_SRC_PORT <= 0.506\ngini = 0.472\nsamples = 51\nvalue = [1, 49, 0, 1, 0, 3, 18, 0, 0]", fillcolor="#e8f08d"] ;
33 -> 34 ;
35 [label="gini = 0.0\nsamples = 1\nvalue = [0, 0, 0, 0, 0, 1, 0, 0, 0]", fillcolor="#3964e5"] ;
34 -> 35 ;
36 [label="L4_SRC_PORT <= 0.606\ngini = 0.458\nsamples = 50\nvalue = [1, 49, 0, 1, 0, 2, 18, 0, 0]", fillcolor="#e8f08b"] ;
34 -> 36 ;
37 [label="gini = 0.399\nsamples = 22\nvalue = [1, 25, 0, 0, 0, 2, 5, 0, 0]", fillcolor="#e2ec72"] ;
36 -> 37 ;
38 [label="L4_SRC_PORT <= 0.64\ngini = 0.483\nsamples = 28\nvalue = [0, 24, 0, 1, 0, 0, 13, 0, 0]", fillcolor="#edf4a8"] ;
36 -> 38 ;
39 [label="gini = 0.406\nsamples = 6\nvalue = [0, 1, 0, 1, 0, 0, 6, 0, 0]", fillcolor="#a572ec"] ;
38 -> 39 ;
40 [label="gini = 0.358\nsamples = 22\nvalue = [0, 23, 0, 0, 0, 0, 7, 0, 0]", fillcolor="#e3ed75"] ;
38 -> 40 ;
41 [label="gini = 0.64\nsamples = 10\nvalue = [0, 6, 0, 0, 0, 3, 6, 0, 0]", fillcolor="#ffffff"] ;
33 -> 41 ;
42 [label="gini = 0.0\nsamples = 1\nvalue = [0, 0, 0, 0, 0, 3, 0, 0, 0]", fillcolor="#3964e5"] ;
32 -> 42 ;
43 [label="gini = 0.0\nsamples = 5\nvalue = [0, 10, 0, 0, 0, 0, 0, 0, 0]", fillcolor="#d7e539"] ;
31 -> 43 ;
44 [label="gini = 0.56\nsamples = 4\nvalue = [0, 1, 0, 0, 0, 1, 3, 0, 0]", fillcolor="#c09cf2"] ;
30 -> 44 ;
45 [label="gini = 0.0\nsamples = 2\nvalue = [0, 0, 0, 0, 0, 0, 6, 0, 0]", fillcolor="#8139e5"] ;
29 -> 45 ;
46 [label="gini = 0.32\nsamples = 3\nvalue = [0, 4, 0, 0, 0, 0, 1, 0, 0]", fillcolor="#e1ec6a"] ;
28 -> 46 ;
47 [label="FLOW_DURATION_MILLISECONDS <= 0.0\ngini = 0.582\nsamples = 79\nvalue = [0, 67, 0, 2, 0, 13, 42, 0, 0]", fillcolor="#f3f7c3"] ;
27 -> 47 ;
48 [label="FLOW_DURATION_MILLISECONDS <= 0.0\ngini = 0.579\nsamples = 78\nvalue = [0, 67, 0, 2, 0, 13, 40, 0, 0]", fillcolor="#f2f6be"] ;
47 -> 48 ;
49 [label="IPV4_SRC_ADDR <= 0.621\ngini = 0.599\nsamples = 71\nvalue = [0, 57, 0, 2, 0, 13, 39, 0, 0]", fillcolor="#f5f8ce"] ;
48 -> 49 ;
50 [label="L4_SRC_PORT <= 0.691\ngini = 0.603\nsamples = 39\nvalue = [0, 26, 0, 2, 0, 5, 26, 0, 0]", fillcolor="#ffffff"] ;
49 -> 50 ;
51 [label="gini = 0.507\nsamples = 23\nvalue = [0, 13, 0, 0, 0, 1, 20, 0, 0]", fillcolor="#d5bdf6"] ;
50 -> 51 ;
52 [label="gini = 0.64\nsamples = 16\nvalue = [0, 13, 0, 2, 0, 4, 6, 0, 0]", fillcolor="#f0f5b6"] ;
50 -> 52 ;
53 [label="FLOW_DURATION_MILLISECONDS <= 0.0\ngini = 0.558\nsamples = 32\nvalue = [0, 31, 0, 0, 0, 8, 13, 0, 0]", fillcolor="#edf3a4"] ;
49 -> 53 ;
54 [label="FLOW_DURATION_MILLISECONDS <= 0.0\ngini = 0.601\nsamples = 26\nvalue = [0, 23, 0, 0, 0, 8, 12, 0, 0]", fillcolor="#f1f6b9"] ;
53 -> 54 ;
55 [label="gini = 0.586\nsamples = 21\nvalue = [0, 20, 0, 0, 0, 6, 10, 0, 0]", fillcolor="#f0f5b3"] ;
54 -> 55 ;
56 [label="gini = 0.653\nsamples = 5\nvalue = [0, 3, 0, 0, 0, 2, 2, 0, 0]", fillcolor="#f7fad7"] ;
54 -> 56 ;
57 [label="gini = 0.198\nsamples = 6\nvalue = [0, 8, 0, 0, 0, 0, 1, 0, 0]", fillcolor="#dce852"] ;
53 -> 57 ;
58 [label="gini = 0.165\nsamples = 7\nvalue = [0, 10, 0, 0, 0, 0, 1, 0, 0]", fillcolor="#dbe84d"] ;
48 -> 58 ;
59 [label="gini = 0.0\nsamples = 1\nvalue = [0, 0, 0, 0, 0, 0, 2, 0, 0]", fillcolor="#8139e5"] ;
47 -> 59 ;
60 [label="gini = 0.291\nsamples = 8\nvalue = [0, 14, 0, 0, 0, 0, 3, 0, 0]", fillcolor="#e0eb63"] ;
26 -> 60 ;
61 [label="OUT_BYTES <= 0.0\ngini = 0.711\nsamples = 42\nvalue = [33, 19, 0, 0, 0, 5, 16, 0, 5]", fillcolor="#f9e1d0"] ;
23 -> 61 ;
62 [label="OUT_BYTES <= 0.0\ngini = 0.555\nsamples = 31\nvalue = [33, 7, 0, 0, 0, 0, 16, 0, 0]", fillcolor="#f4c9ab"] ;
61 -> 62 ;
63 [label="L4_SRC_PORT <= 0.748\ngini = 0.48\nsamples = 25\nvalue = [32, 5, 0, 0, 0, 0, 10, 0, 0]", fillcolor="#f0b489"] ;
62 -> 63 ;
64 [label="gini = 0.631\nsamples = 11\nvalue = [7, 5, 0, 0, 0, 0, 3, 0, 0]", fillcolor="#fae6d7"] ;
63 -> 64 ;
65 [label="gini = 0.342\nsamples = 14\nvalue = [25, 0, 0, 0, 0, 0, 7, 0, 0]", fillcolor="#eca470"] ;
63 -> 65 ;
66 [label="gini = 0.494\nsamples = 6\nvalue = [1, 2, 0, 0, 0, 0, 6, 0, 0]", fillcolor="#b78ef0"] ;
62 -> 66 ;
67 [label="gini = 0.599\nsamples = 11\nvalue = [0, 12, 0, 0, 0, 5, 0, 0, 5]", fillcolor="#eff4ad"] ;
61 -> 67 ;
68 [label="OUT_PKTS <= 0.001\ngini = 0.692\nsamples = 1089\nvalue = [500, 627, 0, 516, 0, 82, 0, 0, 0]", fillcolor="#fbfded"] ;
22 -> 68 ;
69 [label="IPV4_DST_ADDR <= 0.251\ngini = 0.675\nsamples = 701\nvalue = [257, 459, 0, 336, 0, 45, 0, 0, 0]", fillcolor="#f9fbdf"] ;
68 -> 69 ;
70 [label="IPV4_DST_ADDR <= 0.241\ngini = 0.623\nsamples = 183\nvalue = [66, 152, 0, 41, 0, 21, 0, 0, 0]", fillcolor="#eff5af"] ;
69 -> 70 ;
71 [label="IPV4_SRC_ADDR <= 0.621\ngini = 0.711\nsamples = 132\nvalue = [66, 68, 0, 41, 0, 21, 0, 0, 0]", fillcolor="#fefffc"] ;
70 -> 71 ;
72 [label="IN_BYTES <= 0.001\ngini = 0.431\nsamples = 29\nvalue = [30, 0, 0, 10, 0, 2, 0, 0, 0]", fillcolor="#efb083"] ;
71 -> 72 ;
73 [label="OUT_BYTES <= 0.004\ngini = 0.375\nsamples = 28\nvalue = [30, 0, 0, 10, 0, 0, 0, 0, 0]", fillcolor="#eeab7b"] ;
72 -> 73 ;
74 [label="gini = 0.185\nsamples = 21\nvalue = [26, 0, 0, 3, 0, 0, 0, 0, 0]", fillcolor="#e89050"] ;
73 -> 74 ;
75 [label="gini = 0.463\nsamples = 7\nvalue = [4, 0, 0, 7, 0, 0, 0, 0, 0]", fillcolor="#aaf4c9"] ;
73 -> 75 ;
76 [label="gini = 0.0\nsamples = 1\nvalue = [0, 0, 0, 0, 0, 2, 0, 0, 0]", fillcolor="#3964e5"] ;
72 -> 76 ;
77 [label="L4_SRC_PORT <= 0.58\ngini = 0.695\nsamples = 103\nvalue = [36, 68, 0, 31, 0, 19, 0, 0, 0]", fillcolor="#f4f8c9"] ;
71 -> 77 ;
78 [label="FLOW_DURATION_MILLISECONDS <= 0.006\ngini = 0.651\nsamples = 25\nvalue = [12, 8, 0, 14, 0, 0, 0, 0, 0]", fillcolor="#edfdf4"] ;
77 -> 78 ;
79 [label="gini = 0.62\nsamples = 22\nvalue = [12, 5, 0, 14, 0, 0, 0, 0, 0]", fillcolor="#eafcf2"] ;
78 -> 79 ;
80 [label="gini = 0.0\nsamples = 3\nvalue = [0, 3, 0, 0, 0, 0, 0, 0, 0]", fillcolor="#d7e539"] ;
78 -> 80 ;
81 [label="IN_PKTS <= 0.0\ngini = 0.665\nsamples = 78\nvalue = [24, 60, 0, 17, 0, 19, 0, 0, 0]", fillcolor="#f0f5b5"] ;
77 -> 81 ;
82 [label="gini = 0.571\nsamples = 10\nvalue = [0, 4, 0, 2, 0, 8, 0, 0, 0]", fillcolor="#b0c1f5"] ;
81 -> 82 ;
83 [label="L4_SRC_PORT <= 0.642\ngini = 0.639\nsamples = 68\nvalue = [24, 56, 0, 15, 0, 11, 0, 0, 0]", fillcolor="#eff5b2"] ;
81 -> 83 ;
84 [label="gini = 0.563\nsamples = 24\nvalue = [3, 21, 0, 2, 0, 9, 0, 0, 0]", fillcolor="#edf3a4"] ;
83 -> 84 ;
85 [label="OUT_PKTS <= 0.0\ngini = 0.635\nsamples = 44\nvalue = [21, 35, 0, 13, 0, 2, 0, 0, 0]", fillcolor="#f4f8c8"] ;
83 -> 85 ;
86 [label="L4_SRC_PORT <= 0.718\ngini = 0.6\nsamples = 26\nvalue = [9, 25, 0, 8, 0, 2, 0, 0, 0]", fillcolor="#edf3a4"] ;
85 -> 86 ;
87 [label="gini = 0.54\nsamples = 7\nvalue = [0, 3, 0, 6, 0, 1, 0, 0, 0]", fillcolor="#aaf4c9"] ;
86 -> 87 ;
88 [label="gini = 0.507\nsamples = 19\nvalue = [9, 22, 0, 2, 0, 1, 0, 0, 0]", fillcolor="#eaf198"] ;
86 -> 88 ;
89 [label="gini = 0.631\nsamples = 18\nvalue = [12, 10, 0, 5, 0, 0, 0, 0, 0]", fillcolor="#fcf0e8"] ;
85 -> 89 ;
90 [label="gini = 0.0\nsamples = 51\nvalue = [0, 84, 0, 0, 0, 0, 0, 0, 0]", fillcolor="#d7e539"] ;
70 -> 90 ;
91 [label="IN_PKTS <= 0.001\ngini = 0.673\nsamples = 518\nvalue = [191, 307, 0, 295, 0, 24, 0, 0, 0]", fillcolor="#fefefa"] ;
69 -> 91 ;
92 [label="L4_SRC_PORT <= 0.87\ngini = 0.669\nsamples = 441\nvalue = [153, 257, 0, 269, 0, 21, 0, 0, 0]", fillcolor="#fafefc"] ;
91 -> 92 ;
93 [label="OUT_BYTES <= 0.0\ngini = 0.669\nsamples = 365\nvalue = [128, 236, 0, 196, 0, 19, 0, 0, 0]", fillcolor="#fbfcea"] ;
92 -> 93 ;
94 [label="gini = 0.473\nsamples = 18\nvalue = [4, 18, 0, 4, 0, 0, 0, 0, 0]", fillcolor="#e6ee81"] ;
93 -> 94 ;
95 [label="L4_SRC_PORT <= 0.787\ngini = 0.673\nsamples = 347\nvalue = [124, 218, 0, 192, 0, 19, 0, 0, 0]", fillcolor="#fcfdf1"] ;
93 -> 95 ;
96 [label="IN_BYTES <= 0.0\ngini = 0.664\nsamples = 268\nvalue = [89, 156, 0, 168, 0, 12, 0, 0, 0]", fillcolor="#f6fef9"] ;
95 -> 96 ;
97 [label="gini = 0.278\nsamples = 3\nvalue = [1, 5, 0, 0, 0, 0, 0, 0, 0]", fillcolor="#dfea61"] ;
96 -> 97 ;
98 [label="FLOW_DURATION_MILLISECONDS <= 0.0\ngini = 0.664\nsamples = 265\nvalue = [88, 151, 0, 168, 0, 12, 0, 0, 0]", fillcolor="#f2fdf7"] ;
96 -> 98 ;
99 [label="FLOW_DURATION_MILLISECONDS <= 0.0\ngini = 0.661\nsamples = 230\nvalue = [73, 146, 0, 135, 0, 10, 0, 0, 0]", fillcolor="#fdfef5"] ;
98 -> 99 ;
100 [label="L4_SRC_PORT <= 0.763\ngini = 0.654\nsamples = 219\nvalue = [63, 141, 0, 135, 0, 10, 0, 0, 0]", fillcolor="#fefef9"] ;
99 -> 100 ;
101 [label="L4_SRC_PORT <= 0.53\ngini = 0.644\nsamples = 193\nvalue = [50, 135, 0, 110, 0, 9, 0, 0, 0]", fillcolor="#fafce5"] ;
100 -> 101 ;
102 [label="gini = 0.65\nsamples = 15\nvalue = [3, 1, 0, 9, 0, 7, 0, 0, 0]", fillcolor="#e1fbec"] ;
101 -> 102 ;
103 [label="L4_SRC_PORT <= 0.701\ngini = 0.623\nsamples = 178\nvalue = [47, 134, 0, 101, 0, 2, 0, 0, 0]", fillcolor="#f8fadb"] ;
101 -> 103 ;
104 [label="L4_SRC_PORT <= 0.697\ngini = 0.636\nsamples = 130\nvalue = [41, 95, 0, 61, 0, 2, 0, 0, 0]", fillcolor="#f5f9ce"] ;
103 -> 104 ;
105 [label="IPV4_SRC_ADDR <= 0.621\ngini = 0.641\nsamples = 128\nvalue = [41, 90, 0, 61, 0, 2, 0, 0, 0]", fillcolor="#f6f9d4"] ;
104 -> 105 ;
106 [label="L4_SRC_PORT <= 0.533\ngini = 0.577\nsamples = 46\nvalue = [9, 39, 0, 23, 0, 0, 0, 0, 0]", fillcolor="#f2f6bd"] ;
105 -> 106 ;
107 [label="gini = 0.0\nsamples = 2\nvalue = [3, 0, 0, 0, 0, 0, 0, 0, 0]", fillcolor="#e58139"] ;
106 -> 107 ;
108 [label="L4_SRC_PORT <= 0.6\ngini = 0.549\nsamples = 44\nvalue = [6, 39, 0, 23, 0, 0, 0, 0, 0]", fillcolor="#f1f6b9"] ;
106 -> 108 ;
109 [label="gini = 0.53\nsamples = 19\nvalue = [1, 13, 0, 15, 0, 0, 0, 0, 0]", fillcolor="#e6fcef"] ;
108 -> 109 ;
110 [label="FLOW_DURATION_MILLISECONDS <= 0.0\ngini = 0.497\nsamples = 25\nvalue = [5, 26, 0, 8, 0, 0, 0, 0, 0]", fillcolor="#e8f08c"] ;
108 -> 110 ;
111 [label="gini = 0.447\nsamples = 21\nvalue = [4, 25, 0, 6, 0, 0, 0, 0, 0]", fillcolor="#e5ee7d"] ;
110 -> 111 ;
112 [label="gini = 0.625\nsamples = 4\nvalue = [1, 1, 0, 2, 0, 0, 0, 0, 0]", fillcolor="#bdf6d5"] ;
110 -> 112 ;
113 [label="L4_SRC_PORT <= 0.56\ngini = 0.665\nsamples = 82\nvalue = [32, 51, 0, 38, 0, 2, 0, 0, 0]", fillcolor="#f9fbe1"] ;
105 -> 113 ;
114 [label="gini = 0.379\nsamples = 9\nvalue = [0, 10, 0, 2, 0, 1, 0, 0, 0]", fillcolor="#e2ec6f"] ;
113 -> 114 ;
115 [label="L4_SRC_PORT <= 0.572\ngini = 0.669\nsamples = 73\nvalue = [32, 41, 0, 36, 0, 1, 0, 0, 0]", fillcolor="#fcfdf2"] ;
113 -> 115 ;
116 [label="gini = 0.314\nsamples = 6\nvalue = [9, 1, 0, 1, 0, 0, 0, 0, 0]", fillcolor="#ea9a61"] ;
115 -> 116 ;
117 [label="L4_SRC_PORT <= 0.654\ngini = 0.658\nsamples = 67\nvalue = [23, 40, 0, 35, 0, 1, 0, 0, 0]", fillcolor="#fcfdf0"] ;
115 -> 117 ;
118 [label="L4_SRC_PORT <= 0.652\ngini = 0.626\nsamples = 49\nvalue = [12, 35, 0, 25, 0, 1, 0, 0, 0]", fillcolor="#f7fad6"] ;
117 -> 118 ;
119 [label="L4_SRC_PORT <= 0.628\ngini = 0.639\nsamples = 45\nvalue = [12, 30, 0, 25, 0, 1, 0, 0, 0]", fillcolor="#fafce8"] ;
118 -> 119 ;
120 [label="FLOW_DURATION_MILLISECONDS <= 0.0\ngini = 0.627\nsamples = 32\nvalue = [10, 25, 0, 13, 0, 1, 0, 0, 0]", fillcolor="#f2f6bd"] ;
119 -> 120 ;
121 [label="FLOW_DURATION_MILLISECONDS <= 0.0\ngini = 0.617\nsamples = 31\nvalue = [10, 25, 0, 11, 0, 1, 0, 0, 0]", fillcolor="#eff5b2"] ;
120 -> 121 ;
122 [label="L4_SRC_PORT <= 0.582\ngini = 0.635\nsamples = 30\nvalue = [10, 22, 0, 11, 0, 1, 0, 0, 0]", fillcolor="#f2f6bd"] ;
121 -> 122 ;
123 [label="gini = 0.397\nsamples = 7\nvalue = [0, 8, 0, 3, 0, 0, 0, 0, 0]", fillcolor="#e6ef83"] ;
122 -> 123 ;
124 [label="gini = 0.669\nsamples = 23\nvalue = [10, 14, 0, 8, 0, 1, 0, 0, 0]", fillcolor="#f8fadd"] ;
122 -> 124 ;
125 [label="gini = 0.0\nsamples = 1\nvalue = [0, 3, 0, 0, 0, 0, 0, 0, 0]", fillcolor="#d7e539"] ;
121 -> 125 ;
126 [label="gini = 0.0\nsamples = 1\nvalue = [0, 0, 0, 2, 0, 0, 0, 0, 0]", fillcolor="#39e581"] ;
120 -> 126 ;
127 [label="gini = 0.521\nsamples = 13\nvalue = [2, 5, 0, 12, 0, 0, 0, 0, 0]", fillcolor="#9cf2c0"] ;
119 -> 127 ;
128 [label="gini = 0.0\nsamples = 4\nvalue = [0, 5, 0, 0, 0, 0, 0, 0, 0]", fillcolor="#d7e539"] ;
118 -> 128 ;
129 [label="gini = 0.636\nsamples = 18\nvalue = [11, 5, 0, 10, 0, 0, 0, 0, 0]", fillcolor="#fdf7f3"] ;
117 -> 129 ;
130 [label="gini = 0.0\nsamples = 2\nvalue = [0, 5, 0, 0, 0, 0, 0, 0, 0]", fillcolor="#d7e539"] ;
104 -> 130 ;
131 [label="FLOW_DURATION_MILLISECONDS <= 0.0\ngini = 0.563\nsamples = 48\nvalue = [6, 39, 0, 40, 0, 0, 0, 0, 0]", fillcolor="#fbfefc"] ;
103 -> 131 ;
132 [label="L4_SRC_PORT <= 0.706\ngini = 0.554\nsamples = 47\nvalue = [5, 39, 0, 40, 0, 0, 0, 0, 0]", fillcolor="#fbfefc"] ;
131 -> 132 ;
133 [label="gini = 0.0\nsamples = 5\nvalue = [0, 0, 0, 8, 0, 0, 0, 0, 0]", fillcolor="#39e581"] ;
132 -> 133 ;
134 [label="IPV4_SRC_ADDR <= 0.621\ngini = 0.555\nsamples = 42\nvalue = [5, 39, 0, 32, 0, 0, 0, 0, 0]", fillcolor="#f9fbdf"] ;
132 -> 134 ;
135 [label="gini = 0.529\nsamples = 14\nvalue = [2, 14, 0, 7, 0, 0, 0, 0, 0]", fillcolor="#eef4a8"] ;
134 -> 135 ;
136 [label="L4_SRC_PORT <= 0.761\ngini = 0.552\nsamples = 28\nvalue = [3, 25, 0, 25, 0, 0, 0, 0, 0]", fillcolor="#ffffff"] ;
134 -> 136 ;
137 [label="L4_SRC_PORT <= 0.709\ngini = 0.551\nsamples = 26\nvalue = [3, 20, 0, 25, 0, 0, 0, 0, 0]", fillcolor="#dcfae8"] ;
136 -> 137 ;
138 [label="gini = 0.0\nsamples = 2\nvalue = [0, 4, 0, 0, 0, 0, 0, 0, 0]", fillcolor="#d7e539"] ;
137 -> 138 ;
139 [label="gini = 0.54\nsamples = 24\nvalue = [3, 16, 0, 25, 0, 0, 0, 0, 0]", fillcolor="#bff7d6"] ;
137 -> 139 ;
140 [label="gini = 0.0\nsamples = 2\nvalue = [0, 5, 0, 0, 0, 0, 0, 0, 0]", fillcolor="#d7e539"] ;
136 -> 140 ;
141 [label="gini = 0.0\nsamples = 1\nvalue = [1, 0, 0, 0, 0, 0, 0, 0, 0]", fillcolor="#e58139"] ;
131 -> 141 ;
142 [label="FLOW_DURATION_MILLISECONDS <= 0.0\ngini = 0.59\nsamples = 26\nvalue = [13, 6, 0, 25, 0, 1, 0, 0, 0]", fillcolor="#b5f5d0"] ;
100 -> 142 ;
143 [label="IPV4_SRC_ADDR <= 0.621\ngini = 0.576\nsamples = 25\nvalue = [13, 5, 0, 25, 0, 1, 0, 0, 0]", fillcolor="#b2f5ce"] ;
142 -> 143 ;
144 [label="gini = 0.598\nsamples = 11\nvalue = [10, 3, 0, 6, 0, 0, 0, 0, 0]", fillcolor="#f7d8c2"] ;
143 -> 144 ;
145 [label="gini = 0.4\nsamples = 14\nvalue = [3, 2, 0, 19, 0, 1, 0, 0, 0]", fillcolor="#6feca3"] ;
143 -> 145 ;
146 [label="gini = 0.0\nsamples = 1\nvalue = [0, 1, 0, 0, 0, 0, 0, 0, 0]", fillcolor="#d7e539"] ;
142 -> 146 ;
147 [label="gini = 0.444\nsamples = 11\nvalue = [10, 5, 0, 0, 0, 0, 0, 0, 0]", fillcolor="#f2c09c"] ;
99 -> 147 ;
148 [label="L4_SRC_PORT <= 0.592\ngini = 0.556\nsamples = 35\nvalue = [15, 5, 0, 33, 0, 2, 0, 0, 0]", fillcolor="#a6f3c6"] ;
98 -> 148 ;
149 [label="gini = 0.625\nsamples = 15\nvalue = [12, 2, 0, 8, 0, 2, 0, 0, 0]", fillcolor="#f8e0ce"] ;
148 -> 149 ;
150 [label="gini = 0.331\nsamples = 20\nvalue = [3, 3, 0, 25, 0, 0, 0, 0, 0]", fillcolor="#63eb9c"] ;
148 -> 150 ;
151 [label="L4_SRC_PORT <= 0.811\ngini = 0.652\nsamples = 79\nvalue = [35, 62, 0, 24, 0, 7, 0, 0, 0]", fillcolor="#f3f7c6"] ;
95 -> 151 ;
152 [label="gini = 0.398\nsamples = 11\nvalue = [3, 12, 0, 1, 0, 0, 0, 0, 0]", fillcolor="#e3ed76"] ;
151 -> 152 ;
153 [label="L4_SRC_PORT <= 0.824\ngini = 0.673\nsamples = 68\nvalue = [32, 50, 0, 23, 0, 7, 0, 0, 0]", fillcolor="#f6f9d2"] ;
151 -> 153 ;
154 [label="gini = 0.449\nsamples = 6\nvalue = [5, 1, 0, 1, 0, 0, 0, 0, 0]", fillcolor="#eeab7b"] ;
153 -> 154 ;
155 [label="IPV4_SRC_ADDR <= 0.621\ngini = 0.668\nsamples = 62\nvalue = [27, 49, 0, 22, 0, 7, 0, 0, 0]", fillcolor="#f4f8c7"] ;
153 -> 155 ;
156 [label="FLOW_DURATION_MILLISECONDS <= 0.0\ngini = 0.628\nsamples = 29\nvalue = [11, 26, 0, 17, 0, 0, 0, 0, 0]", fillcolor="#f5f9cf"] ;
155 -> 156 ;
157 [label="L4_SRC_PORT <= 0.837\ngini = 0.641\nsamples = 27\nvalue = [11, 22, 0, 16, 0, 0, 0, 0, 0]", fillcolor="#f8fadb"] ;
156 -> 157 ;
158 [label="gini = 0.198\nsamples = 5\nvalue = [1, 0, 0, 8, 0, 0, 0, 0, 0]", fillcolor="#52e891"] ;
157 -> 158 ;
159 [label="gini = 0.595\nsamples = 22\nvalue = [10, 22, 0, 8, 0, 0, 0, 0, 0]", fillcolor="#eff5b0"] ;
157 -> 159 ;
160 [label="gini = 0.32\nsamples = 2\nvalue = [0, 4, 0, 1, 0, 0, 0, 0, 0]", fillcolor="#e1ec6a"] ;
156 -> 160 ;
161 [label="FLOW_DURATION_MILLISECONDS <= 0.0\ngini = 0.67\nsamples = 33\nvalue = [16, 23, 0, 5, 0, 7, 0, 0, 0]", fillcolor="#f7fad7"] ;
155 -> 161 ;
162 [label="L4_SRC_PORT <= 0.85\ngini = 0.694\nsamples = 30\nvalue = [16, 17, 0, 5, 0, 7, 0, 0, 0]", fillcolor="#fefef8"] ;
161 -> 162 ;
163 [label="gini = 0.682\nsamples = 20\nvalue = [7, 14, 0, 5, 0, 4, 0, 0, 0]", fillcolor="#f3f7c3"] ;
162 -> 163 ;
164 [label="gini = 0.56\nsamples = 10\nvalue = [9, 3, 0, 0, 0, 3, 0, 0, 0]", fillcolor="#f2c09c"] ;
162 -> 164 ;
165 [label="gini = 0.0\nsamples = 3\nvalue = [0, 6, 0, 0, 0, 0, 0, 0, 0]", fillcolor="#d7e539"] ;
161 -> 165 ;
166 [label="OUT_BYTES <= 0.0\ngini = 0.563\nsamples = 76\nvalue = [25, 21, 0, 73, 0, 2, 0, 0, 0]", fillcolor="#9cf2c0"] ;
92 -> 166 ;
167 [label="gini = 0.142\nsamples = 7\nvalue = [1, 0, 0, 12, 0, 0, 0, 0, 0]", fillcolor="#49e78c"] ;
166 -> 167 ;
168 [label="IN_PKTS <= 0.0\ngini = 0.593\nsamples = 69\nvalue = [24, 21, 0, 61, 0, 2, 0, 0, 0]", fillcolor="#a8f4c8"] ;
166 -> 168 ;
169 [label="gini = 0.0\nsamples = 3\nvalue = [0, 4, 0, 0, 0, 0, 0, 0, 0]", fillcolor="#d7e539"] ;
168 -> 169 ;
170 [label="FLOW_DURATION_MILLISECONDS <= 0.0\ngini = 0.576\nsamples = 66\nvalue = [24, 17, 0, 61, 0, 2, 0, 0, 0]", fillcolor="#a3f3c5"] ;
168 -> 170 ;
171 [label="IPV4_SRC_ADDR <= 0.621\ngini = 0.601\nsamples = 63\nvalue = [24, 17, 0, 53, 0, 2, 0, 0, 0]", fillcolor="#aff5cc"] ;
170 -> 171 ;
172 [label="L4_SRC_PORT <= 0.92\ngini = 0.608\nsamples = 43\nvalue = [20, 13, 0, 36, 0, 0, 0, 0, 0]", fillcolor="#bef7d6"] ;
171 -> 172 ;
173 [label="L4_SRC_PORT <= 0.914\ngini = 0.639\nsamples = 31\nvalue = [16, 10, 0, 21, 0, 0, 0, 0, 0]", fillcolor="#dffbeb"] ;
172 -> 173 ;
174 [label="FLOW_DURATION_MILLISECONDS <= 0.0\ngini = 0.586\nsamples = 27\nvalue = [11, 6, 0, 21, 0, 0, 0, 0, 0]", fillcolor="#b6f5d0"] ;
173 -> 174 ;
175 [label="L4_SRC_PORT <= 0.873\ngini = 0.563\nsamples = 25\nvalue = [10, 5, 0, 21, 0, 0, 0, 0, 0]", fillcolor="#abf4ca"] ;
174 -> 175 ;
176 [label="gini = 0.0\nsamples = 1\nvalue = [0, 1, 0, 0, 0, 0, 0, 0, 0]", fillcolor="#d7e539"] ;
175 -> 176 ;
177 [label="gini = 0.545\nsamples = 24\nvalue = [10, 4, 0, 21, 0, 0, 0, 0, 0]", fillcolor="#a8f4c8"] ;
175 -> 177 ;
178 [label="gini = 0.5\nsamples = 2\nvalue = [1, 1, 0, 0, 0, 0, 0, 0, 0]", fillcolor="#ffffff"] ;
174 -> 178 ;
179 [label="gini = 0.494\nsamples = 4\nvalue = [5, 4, 0, 0, 0, 0, 0, 0, 0]", fillcolor="#fae6d7"] ;
173 -> 179 ;
180 [label="gini = 0.483\nsamples = 12\nvalue = [4, 3, 0, 15, 0, 0, 0, 0, 0]", fillcolor="#86efb2"] ;
172 -> 180 ;
181 [label="gini = 0.554\nsamples = 20\nvalue = [4, 4, 0, 17, 0, 2, 0, 0, 0]", fillcolor="#8ff0b8"] ;
171 -> 181 ;
182 [label="gini = 0.0\nsamples = 3\nvalue = [0, 0, 0, 8, 0, 0, 0, 0, 0]", fillcolor="#39e581"] ;
170 -> 182 ;
183 [label="IN_BYTES <= 0.001\ngini = 0.662\nsamples = 77\nvalue = [38, 50, 0, 26, 0, 3, 0, 0, 0]", fillcolor="#f9fbe1"] ;
91 -> 183 ;
184 [label="IN_BYTES <= 0.001\ngini = 0.609\nsamples = 33\nvalue = [11, 25, 0, 6, 0, 3, 0, 0, 0]", fillcolor="#eff4ad"] ;
183 -> 184 ;
185 [label="FLOW_DURATION_MILLISECONDS <= 0.0\ngini = 0.674\nsamples = 27\nvalue = [11, 16, 0, 6, 0, 3, 0, 0, 0]", fillcolor="#f7fad7"] ;
184 -> 185 ;
186 [label="gini = 0.58\nsamples = 8\nvalue = [5, 0, 0, 4, 0, 1, 0, 0, 0]", fillcolor="#fbeade"] ;
185 -> 186 ;
187 [label="gini = 0.556\nsamples = 19\nvalue = [6, 16, 0, 2, 0, 2, 0, 0, 0]", fillcolor="#ebf29c"] ;
185 -> 187 ;
188 [label="gini = 0.0\nsamples = 6\nvalue = [0, 9, 0, 0, 0, 0, 0, 0, 0]", fillcolor="#d7e539"] ;
184 -> 188 ;
189 [label="IN_BYTES <= 0.001\ngini = 0.662\nsamples = 44\nvalue = [27, 25, 0, 20, 0, 0, 0, 0, 0]", fillcolor="#fefaf7"] ;
183 -> 189 ;
190 [label="gini = 0.64\nsamples = 18\nvalue = [8, 8, 0, 14, 0, 0, 0, 0, 0]", fillcolor="#c9f8dd"] ;
189 -> 190 ;
191 [label="OUT_BYTES <= 0.0\ngini = 0.611\nsamples = 26\nvalue = [19, 17, 0, 6, 0, 0, 0, 0, 0]", fillcolor="#fdf5ef"] ;
189 -> 191 ;
192 [label="gini = 0.542\nsamples = 7\nvalue = [1, 7, 0, 4, 0, 0, 0, 0, 0]", fillcolor="#f0f5b5"] ;
191 -> 192 ;
193 [label="gini = 0.524\nsamples = 19\nvalue = [18, 10, 0, 2, 0, 0, 0, 0, 0]", fillcolor="#f5cdb0"] ;
191 -> 193 ;
194 [label="FLOW_DURATION_MILLISECONDS <= 0.0\ngini = 0.693\nsamples = 388\nvalue = [243, 168, 0, 180, 0, 37, 0, 0, 0]", fillcolor="#fbede3"] ;
68 -> 194 ;
195 [label="IN_BYTES <= 0.001\ngini = 0.625\nsamples = 34\nvalue = [13, 15, 0, 33, 0, 2, 0, 0, 0]", fillcolor="#b5f5d0"] ;
194 -> 195 ;
196 [label="gini = 0.639\nsamples = 15\nvalue = [3, 13, 0, 9, 0, 2, 0, 0, 0]", fillcolor="#f6f9d3"] ;
195 -> 196 ;
197 [label="gini = 0.475\nsamples = 19\nvalue = [10, 2, 0, 24, 0, 0, 0, 0, 0]", fillcolor="#94f1bb"] ;
195 -> 197 ;
198 [label="OUT_BYTES <= 0.005\ngini = 0.689\nsamples = 354\nvalue = [230, 153, 0, 147, 0, 35, 0, 0, 0]", fillcolor="#fae7da"] ;
194 -> 198 ;
199 [label="IN_PKTS <= 0.002\ngini = 0.698\nsamples = 198\nvalue = [94, 110, 0, 90, 0, 18, 0, 0, 0]", fillcolor="#fcfdf0"] ;
198 -> 199 ;
200 [label="FLOW_DURATION_MILLISECONDS <= 0.0\ngini = 0.698\nsamples = 166\nvalue = [90, 83, 0, 72, 0, 15, 0, 0, 0]", fillcolor="#fefaf7"] ;
199 -> 200 ;
201 [label="IN_PKTS <= 0.001\ngini = 0.698\nsamples = 158\nvalue = [90, 73, 0, 69, 0, 15, 0, 0, 0]", fillcolor="#fcf3ec"] ;
200 -> 201 ;
202 [label="gini = 0.444\nsamples = 4\nvalue = [4, 2, 0, 0, 0, 0, 0, 0, 0]", fillcolor="#f2c09c"] ;
201 -> 202 ;
203 [label="IN_BYTES <= 0.001\ngini = 0.7\nsamples = 154\nvalue = [86, 71, 0, 69, 0, 15, 0, 0, 0]", fillcolor="#fdf4ee"] ;
201 -> 203 ;
204 [label="IN_BYTES <= 0.0\ngini = 0.69\nsamples = 109\nvalue = [54, 61, 0, 51, 0, 7, 0, 0, 0]", fillcolor="#fdfdf3"] ;
203 -> 204 ;
205 [label="gini = 0.0\nsamples = 3\nvalue = [6, 0, 0, 0, 0, 0, 0, 0, 0]", fillcolor="#e58139"] ;
204 -> 205 ;
206 [label="IN_BYTES <= 0.001\ngini = 0.689\nsamples = 106\nvalue = [48, 61, 0, 51, 0, 7, 0, 0, 0]", fillcolor="#fcfdee"] ;
204 -> 206 ;
207 [label="L4_SRC_PORT <= 0.529\ngini = 0.698\nsamples = 81\nvalue = [39, 41, 0, 44, 0, 7, 0, 0, 0]", fillcolor="#f8fefb"] ;
206 -> 207 ;
208 [label="gini = 0.639\nsamples = 9\nvalue = [4, 3, 0, 0, 0, 6, 0, 0, 0]", fillcolor="#d3ddf9"] ;
207 -> 208 ;
209 [label="L4_SRC_PORT <= 0.904\ngini = 0.669\nsamples = 72\nvalue = [35, 38, 0, 44, 0, 1, 0, 0, 0]", fillcolor="#f0fdf6"] ;
207 -> 209 ;
210 [label="IPV4_SRC_ADDR <= 0.621\ngini = 0.666\nsamples = 67\nvalue = [35, 38, 0, 38, 0, 0, 0, 0, 0]", fillcolor="#ffffff"] ;
209 -> 210 ;
211 [label="IN_PKTS <= 0.001\ngini = 0.647\nsamples = 38\nvalue = [22, 13, 0, 24, 0, 0, 0, 0, 0]", fillcolor="#f4fef8"] ;
210 -> 211 ;
212 [label="gini = 0.375\nsamples = 2\nvalue = [0, 1, 0, 3, 0, 0, 0, 0, 0]", fillcolor="#7beeab"] ;
211 -> 212 ;
213 [label="FLOW_DURATION_MILLISECONDS <= 0.0\ngini = 0.647\nsamples = 36\nvalue = [22, 12, 0, 21, 0, 0, 0, 0, 0]", fillcolor="#fefbf9"] ;
211 -> 213 ;
214 [label="gini = 0.54\nsamples = 18\nvalue = [18, 9, 0, 3, 0, 0, 0, 0, 0]", fillcolor="#f4c9aa"] ;
213 -> 214 ;
215 [label="gini = 0.442\nsamples = 18\nvalue = [4, 3, 0, 18, 0, 0, 0, 0, 0]", fillcolor="#7beeab"] ;
213 -> 215 ;
216 [label="IN_BYTES <= 0.001\ngini = 0.634\nsamples = 29\nvalue = [13, 25, 0, 14, 0, 0, 0, 0, 0]", fillcolor="#f3f7c6"] ;
210 -> 216 ;
217 [label="gini = 0.618\nsamples = 23\nvalue = [13, 21, 0, 8, 0, 0, 0, 0, 0]", fillcolor="#f4f8c8"] ;
216 -> 217 ;
218 [label="gini = 0.48\nsamples = 6\nvalue = [0, 4, 0, 6, 0, 0, 0, 0, 0]", fillcolor="#bdf6d5"] ;
216 -> 218 ;
219 [label="gini = 0.245\nsamples = 5\nvalue = [0, 0, 0, 6, 0, 1, 0, 0, 0]", fillcolor="#5ae996"] ;
209 -> 219 ;
220 [label="FLOW_DURATION_MILLISECONDS <= 0.0\ngini = 0.591\nsamples = 25\nvalue = [9, 20, 0, 7, 0, 0, 0, 0, 0]", fillcolor="#eff4ae"] ;
206 -> 220 ;
221 [label="gini = 0.569\nsamples = 23\nvalue = [7, 20, 0, 7, 0, 0, 0, 0, 0]", fillcolor="#ecf2a0"] ;
220 -> 221 ;
222 [label="gini = 0.0\nsamples = 2\nvalue = [2, 0, 0, 0, 0, 0, 0, 0, 0]", fillcolor="#e58139"] ;
220 -> 222 ;
223 [label="IPV4_SRC_ADDR <= 0.621\ngini = 0.673\nsamples = 45\nvalue = [32, 10, 0, 18, 0, 8, 0, 0, 0]", fillcolor="#f8dcc8"] ;
203 -> 223 ;
224 [label="IN_PKTS <= 0.001\ngini = 0.575\nsamples = 27\nvalue = [22, 9, 0, 7, 0, 0, 0, 0, 0]", fillcolor="#f3c7a6"] ;
223 -> 224 ;
225 [label="gini = 0.48\nsamples = 4\nvalue = [0, 2, 0, 3, 0, 0, 0, 0, 0]", fillcolor="#bdf6d5"] ;
224 -> 225 ;
226 [label="gini = 0.496\nsamples = 23\nvalue = [22, 7, 0, 4, 0, 0, 0, 0, 0]", fillcolor="#f0b68d"] ;
224 -> 226 ;
227 [label="gini = 0.682\nsamples = 18\nvalue = [10, 1, 0, 11, 0, 8, 0, 0, 0]", fillcolor="#f5fef9"] ;
223 -> 227 ;
228 [label="gini = 0.355\nsamples = 8\nvalue = [0, 10, 0, 3, 0, 0, 0, 0, 0]", fillcolor="#e3ed74"] ;
200 -> 228 ;
229 [label="OUT_BYTES <= 0.003\ngini = 0.601\nsamples = 32\nvalue = [4, 27, 0, 18, 0, 3, 0, 0, 0]", fillcolor="#f4f8cb"] ;
199 -> 229 ;
230 [label="gini = 0.0\nsamples = 1\nvalue = [0, 0, 0, 2, 0, 0, 0, 0, 0]", fillcolor="#39e581"] ;
229 -> 230 ;
231 [label="FLOW_DURATION_MILLISECONDS <= 0.0\ngini = 0.596\nsamples = 31\nvalue = [4, 27, 0, 16, 0, 3, 0, 0, 0]", fillcolor="#f2f7bf"] ;
229 -> 231 ;
232 [label="gini = 0.559\nsamples = 14\nvalue = [2, 9, 0, 13, 0, 0, 0, 0, 0]", fillcolor="#caf8dd"] ;
231 -> 232 ;
233 [label="gini = 0.488\nsamples = 17\nvalue = [2, 18, 0, 3, 0, 3, 0, 0, 0]", fillcolor="#e5ee7e"] ;
231 -> 233 ;
234 [label="L4_SRC_PORT <= 0.917\ngini = 0.627\nsamples = 156\nvalue = [136, 43, 0, 57, 0, 17, 0, 0, 0]", fillcolor="#f5ccaf"] ;
198 -> 234 ;
235 [label="FLOW_DURATION_MILLISECONDS <= 0.0\ngini = 0.608\nsamples = 144\nvalue = [132, 37, 0, 47, 0, 17, 0, 0, 0]", fillcolor="#f3c5a5"] ;
234 -> 235 ;
236 [label="FLOW_DURATION_MILLISECONDS <= 0.0\ngini = 0.596\nsamples = 69\nvalue = [65, 27, 0, 16, 0, 6, 0, 0, 0]", fillcolor="#f4c8a9"] ;
235 -> 236 ;
237 [label="IN_BYTES <= 0.001\ngini = 0.583\nsamples = 67\nvalue = [65, 23, 0, 16, 0, 6, 0, 0, 0]", fillcolor="#f2c29f"] ;
236 -> 237 ;
238 [label="gini = 0.689\nsamples = 21\nvalue = [14, 12, 0, 5, 0, 4, 0, 0, 0]", fillcolor="#fdf4ee"] ;
237 -> 238 ;
239 [label="OUT_BYTES <= 0.009\ngini = 0.494\nsamples = 46\nvalue = [51, 11, 0, 11, 0, 2, 0, 0, 0]", fillcolor="#efb083"] ;
237 -> 239 ;
240 [label="L4_SRC_PORT <= 0.519\ngini = 0.339\nsamples = 25\nvalue = [33, 3, 0, 3, 0, 2, 0, 0, 0]", fillcolor="#ea9c63"] ;
239 -> 240 ;
241 [label="gini = 0.48\nsamples = 2\nvalue = [3, 0, 0, 2, 0, 0, 0, 0, 0]", fillcolor="#f6d5bd"] ;
240 -> 241 ;
242 [label="gini = 0.295\nsamples = 23\nvalue = [30, 3, 0, 1, 0, 2, 0, 0, 0]", fillcolor="#ea985d"] ;
240 -> 242 ;
243 [label="gini = 0.609\nsamples = 21\nvalue = [18, 8, 0, 8, 0, 0, 0, 0, 0]", fillcolor="#f5cfb3"] ;
239 -> 243 ;
244 [label="gini = 0.0\nsamples = 2\nvalue = [0, 4, 0, 0, 0, 0, 0, 0, 0]", fillcolor="#d7e539"] ;
236 -> 244 ;
245 [label="IPV4_SRC_ADDR <= 0.621\ngini = 0.6\nsamples = 75\nvalue = [67, 10, 0, 31, 0, 11, 0, 0, 0]", fillcolor="#f4cbae"] ;
235 -> 245 ;
246 [label="FLOW_DURATION_MILLISECONDS <= 0.0\ngini = 0.46\nsamples = 44\nvalue = [49, 3, 0, 15, 0, 3, 0, 0, 0]", fillcolor="#efb185"] ;
245 -> 246 ;
247 [label="gini = 0.0\nsamples = 2\nvalue = [0, 0, 0, 2, 0, 0, 0, 0, 0]", fillcolor="#39e581"] ;
246 -> 247 ;
248 [label="FLOW_DURATION_MILLISECONDS <= 0.0\ngini = 0.44\nsamples = 42\nvalue = [49, 3, 0, 13, 0, 3, 0, 0, 0]", fillcolor="#eead7d"] ;
246 -> 248 ;
249 [label="gini = 0.0\nsamples = 9\nvalue = [17, 0, 0, 0, 0, 0, 0, 0, 0]", fillcolor="#e58139"] ;
248 -> 249 ;
250 [label="FLOW_DURATION_MILLISECONDS <= 0.0\ngini = 0.534\nsamples = 33\nvalue = [32, 3, 0, 13, 0, 3, 0, 0, 0]", fillcolor="#f2c09c"] ;
248 -> 250 ;
251 [label="gini = 0.0\nsamples = 2\nvalue = [0, 0, 0, 4, 0, 0, 0, 0, 0]", fillcolor="#39e581"] ;
250 -> 251 ;
252 [label="L4_SRC_PORT <= 0.691\ngini = 0.492\nsamples = 31\nvalue = [32, 3, 0, 9, 0, 3, 0, 0, 0]", fillcolor="#efb387"] ;
250 -> 252 ;
253 [label="gini = 0.56\nsamples = 11\nvalue = [7, 1, 0, 7, 0, 0, 0, 0, 0]", fillcolor="#ffffff"] ;
252 -> 253 ;
254 [label="gini = 0.373\nsamples = 20\nvalue = [25, 2, 0, 2, 0, 3, 0, 0, 0]", fillcolor="#eb9f69"] ;
252 -> 254 ;
255 [label="L4_SRC_PORT <= 0.522\ngini = 0.711\nsamples = 31\nvalue = [18, 7, 0, 16, 0, 8, 0, 0, 0]", fillcolor="#fdf7f3"] ;
245 -> 255 ;
256 [label="gini = 0.278\nsamples = 4\nvalue = [0, 1, 0, 5, 0, 0, 0, 0, 0]", fillcolor="#61ea9a"] ;
255 -> 256 ;
257 [label="L4_SRC_PORT <= 0.858\ngini = 0.705\nsamples = 27\nvalue = [18, 6, 0, 11, 0, 8, 0, 0, 0]", fillcolor="#f9e3d4"] ;
255 -> 257 ;
258 [label="IN_BYTES <= 0.001\ngini = 0.695\nsamples = 25\nvalue = [18, 6, 0, 8, 0, 8, 0, 0, 0]", fillcolor="#f7d8c1"] ;
257 -> 258 ;
259 [label="gini = 0.728\nsamples = 22\nvalue = [13, 6, 0, 8, 0, 8, 0, 0, 0]", fillcolor="#fae8da"] ;
258 -> 259 ;
260 [label="gini = 0.0\nsamples = 3\nvalue = [5, 0, 0, 0, 0, 0, 0, 0, 0]", fillcolor="#e58139"] ;
258 -> 260 ;
261 [label="gini = 0.0\nsamples = 2\nvalue = [0, 0, 0, 3, 0, 0, 0, 0, 0]", fillcolor="#39e581"] ;
257 -> 261 ;
262 [label="gini = 0.62\nsamples = 12\nvalue = [4, 6, 0, 10, 0, 0, 0, 0, 0]", fillcolor="#c6f8db"] ;
234 -> 262 ;
263 [label="IN_BYTES <= 0.0\ngini = 0.227\nsamples = 120\nvalue = [0, 160, 0, 0, 0, 24, 0, 0, 0]", fillcolor="#dde957"] ;
21 -> 263 ;
264 [label="IN_PKTS <= 0.001\ngini = 0.178\nsamples = 93\nvalue = [0, 128, 0, 0, 0, 14, 0, 0, 0]", fillcolor="#dbe84f"] ;
263 -> 264 ;
265 [label="gini = 0.062\nsamples = 20\nvalue = [0, 30, 0, 0, 0, 1, 0, 0, 0]", fillcolor="#d8e640"] ;
264 -> 265 ;
266 [label="FLOW_DURATION_MILLISECONDS <= 0.002\ngini = 0.207\nsamples = 73\nvalue = [0, 98, 0, 0, 0, 13, 0, 0, 0]", fillcolor="#dce853"] ;
264 -> 266 ;
267 [label="gini = 0.48\nsamples = 3\nvalue = [0, 2, 0, 0, 0, 3, 0, 0, 0]", fillcolor="#bdcbf6"] ;
266 -> 267 ;
268 [label="IPV4_SRC_ADDR <= 0.621\ngini = 0.171\nsamples = 70\nvalue = [0, 96, 0, 0, 0, 10, 0, 0, 0]", fillcolor="#dbe84e"] ;
266 -> 268 ;
269 [label="gini = 0.0\nsamples = 28\nvalue = [0, 43, 0, 0, 0, 0, 0, 0, 0]", fillcolor="#d7e539"] ;
268 -> 269 ;
270 [label="L4_SRC_PORT <= 0.857\ngini = 0.267\nsamples = 42\nvalue = [0, 53, 0, 0, 0, 10, 0, 0, 0]", fillcolor="#dfea5e"] ;
268 -> 270 ;
271 [label="FLOW_DURATION_MILLISECONDS <= 0.003\ngini = 0.198\nsamples = 35\nvalue = [0, 48, 0, 0, 0, 6, 0, 0, 0]", fillcolor="#dce852"] ;
270 -> 271 ;
272 [label="gini = 0.054\nsamples = 22\nvalue = [0, 35, 0, 0, 0, 1, 0, 0, 0]", fillcolor="#d8e63f"] ;
271 -> 272 ;
273 [label="gini = 0.401\nsamples = 13\nvalue = [0, 13, 0, 0, 0, 5, 0, 0, 0]", fillcolor="#e6ef85"] ;
271 -> 273 ;
274 [label="gini = 0.494\nsamples = 7\nvalue = [0, 5, 0, 0, 0, 4, 0, 0, 0]", fillcolor="#f7fad7"] ;
270 -> 274 ;
275 [label="FLOW_DURATION_MILLISECONDS <= 0.006\ngini = 0.363\nsamples = 27\nvalue = [0, 32, 0, 0, 0, 10, 0, 0, 0]", fillcolor="#e4ed77"] ;
263 -> 275 ;
276 [label="gini = 0.142\nsamples = 18\nvalue = [0, 24, 0, 0, 0, 2, 0, 0, 0]", fillcolor="#dae749"] ;
275 -> 276 ;
277 [label="gini = 0.5\nsamples = 9\nvalue = [0, 8, 0, 0, 0, 8, 0, 0, 0]", fillcolor="#ffffff"] ;
275 -> 277 ;
278 [label="OUT_PKTS <= 0.002\ngini = 0.486\nsamples = 190\nvalue = [212, 0, 0, 89, 0, 21, 0, 0, 0]", fillcolor="#f1bc96"] ;
12 -> 278 ;
279 [label="IPV4_DST_ADDR <= 0.589\ngini = 0.569\nsamples = 131\nvalue = [117, 0, 0, 82, 0, 21, 0, 0, 0]", fillcolor="#f8dfcd"] ;
278 -> 279 ;
280 [label="OUT_PKTS <= 0.001\ngini = 0.583\nsamples = 123\nvalue = [101, 0, 0, 82, 0, 21, 0, 0, 0]", fillcolor="#fbebe0"] ;
279 -> 280 ;
281 [label="L4_SRC_PORT <= 0.66\ngini = 0.576\nsamples = 110\nvalue = [97, 0, 0, 64, 0, 20, 0, 0, 0]", fillcolor="#f8dbc7"] ;
280 -> 281 ;
282 [label="L4_SRC_PORT <= 0.528\ngini = 0.434\nsamples = 39\nvalue = [50, 0, 0, 16, 0, 4, 0, 0, 0]", fillcolor="#efb082"] ;
281 -> 282 ;
283 [label="gini = 0.278\nsamples = 4\nvalue = [1, 0, 0, 5, 0, 0, 0, 0, 0]", fillcolor="#61ea9a"] ;
282 -> 283 ;
284 [label="OUT_PKTS <= 0.001\ngini = 0.38\nsamples = 35\nvalue = [49, 0, 0, 11, 0, 4, 0, 0, 0]", fillcolor="#eca571"] ;
282 -> 284 ;
285 [label="gini = 0.226\nsamples = 15\nvalue = [21, 0, 0, 1, 0, 2, 0, 0, 0]", fillcolor="#e99254"] ;
284 -> 285 ;
286 [label="gini = 0.445\nsamples = 20\nvalue = [28, 0, 0, 10, 0, 2, 0, 0, 0]", fillcolor="#efb388"] ;
284 -> 286 ;
287 [label="IN_BYTES <= 0.001\ngini = 0.613\nsamples = 71\nvalue = [47, 0, 0, 48, 0, 16, 0, 0, 0]", fillcolor="#fcfffd"] ;
281 -> 287 ;
288 [label="FLOW_DURATION_MILLISECONDS <= 0.0\ngini = 0.562\nsamples = 41\nvalue = [20, 0, 0, 38, 0, 8, 0, 0, 0]", fillcolor="#b2f5ce"] ;
287 -> 288 ;
289 [label="gini = 0.424\nsamples = 19\nvalue = [4, 0, 0, 25, 0, 5, 0, 0, 0]", fillcolor="#76eda8"] ;
288 -> 289 ;
290 [label="gini = 0.576\nsamples = 22\nvalue = [16, 0, 0, 13, 0, 3, 0, 0, 0]", fillcolor="#fbebe0"] ;
288 -> 290 ;
291 [label="IN_BYTES <= 0.001\ngini = 0.559\nsamples = 30\nvalue = [27, 0, 0, 10, 0, 8, 0, 0, 0]", fillcolor="#f2c29f"] ;
287 -> 291 ;
292 [label="gini = 0.499\nsamples = 13\nvalue = [12, 0, 0, 1, 0, 6, 0, 0, 0]", fillcolor="#f3c5a4"] ;
291 -> 292 ;
293 [label="gini = 0.541\nsamples = 17\nvalue = [15, 0, 0, 9, 0, 2, 0, 0, 0]", fillcolor="#f6d3b9"] ;
291 -> 293 ;
294 [label="gini = 0.355\nsamples = 13\nvalue = [4, 0, 0, 18, 0, 1, 0, 0, 0]", fillcolor="#6deca2"] ;
280 -> 294 ;
295 [label="gini = 0.0\nsamples = 8\nvalue = [16, 0, 0, 0, 0, 0, 0, 0, 0]", fillcolor="#e58139"] ;
279 -> 295 ;
296 [label="FLOW_DURATION_MILLISECONDS <= 0.0\ngini = 0.128\nsamples = 59\nvalue = [95, 0, 0, 7, 0, 0, 0, 0, 0]", fillcolor="#e78a48"] ;
278 -> 296 ;
297 [label="gini = 0.0\nsamples = 35\nvalue = [63, 0, 0, 0, 0, 0, 0, 0, 0]", fillcolor="#e58139"] ;
296 -> 297 ;
298 [label="gini = 0.295\nsamples = 24\nvalue = [32, 0, 0, 7, 0, 0, 0, 0, 0]", fillcolor="#eb9d64"] ;
296 -> 298 ;
299 [label="gini = 0.0\nsamples = 810\nvalue = [0, 1263, 0, 0, 0, 0, 0, 0, 0]", fillcolor="#d7e539"] ;
11 -> 299 ;
300 [label="OUT_PKTS <= 0.0\ngini = 0.589\nsamples = 2698\nvalue = [2572, 150, 259, 622, 685, 0, 0, 0, 1]", fillcolor="#f1bd97"] ;
10 -> 300 ;
301 [label="L4_SRC_PORT <= 0.315\ngini = 0.443\nsamples = 199\nvalue = [79, 3, 226, 6, 7, 0, 0, 0, 0]", fillcolor="#a1ef87"] ;
300 -> 301 ;
302 [label="gini = 0.0\nsamples = 87\nvalue = [0, 0, 138, 0, 0, 0, 0, 0, 0]", fillcolor="#64e539"] ;
301 -> 302 ;
303 [label="IPV4_SRC_ADDR <= 0.848\ngini = 0.58\nsamples = 112\nvalue = [79, 3, 88, 6, 7, 0, 0, 0, 0]", fillcolor="#f2fdee"] ;
301 -> 303 ;
304 [label="TCP_FLAGS <= 0.29\ngini = 0.298\nsamples = 54\nvalue = [79, 3, 0, 6, 7, 0, 0, 0, 0]", fillcolor="#ea985d"] ;
303 -> 304 ;
305 [label="gini = 0.0\nsamples = 1\nvalue = [0, 0, 0, 0, 1, 0, 0, 0, 0]", fillcolor="#39d7e5"] ;
304 -> 305 ;
306 [label="L4_SRC_PORT <= 0.696\ngini = 0.285\nsamples = 53\nvalue = [79, 3, 0, 6, 6, 0, 0, 0, 0]", fillcolor="#e9965b"] ;
304 -> 306 ;
307 [label="IPV4_DST_ADDR <= 0.262\ngini = 0.473\nsamples = 29\nvalue = [31, 3, 0, 5, 5, 0, 0, 0, 0]", fillcolor="#eeab7b"] ;
306 -> 307 ;
308 [label="gini = 0.378\nsamples = 22\nvalue = [28, 3, 0, 3, 2, 0, 0, 0, 0]", fillcolor="#eba069"] ;
307 -> 308 ;
309 [label="gini = 0.656\nsamples = 7\nvalue = [3, 0, 0, 2, 3, 0, 0, 0, 0]", fillcolor="#ffffff"] ;
307 -> 309 ;
310 [label="gini = 0.078\nsamples = 24\nvalue = [48, 0, 0, 1, 1, 0, 0, 0, 0]", fillcolor="#e68641"] ;
306 -> 310 ;
311 [label="gini = 0.0\nsamples = 58\nvalue = [0, 0, 88, 0, 0, 0, 0, 0, 0]", fillcolor="#64e539"] ;
303 -> 311 ;
312 [label="OUT_PKTS <= 0.002\ngini = 0.551\nsamples = 2499\nvalue = [2493, 147, 33, 616, 678, 0, 0, 0, 1]", fillcolor="#f1b992"] ;
300 -> 312 ;
313 [label="IPV4_SRC_ADDR <= 0.682\ngini = 0.624\nsamples = 1941\nvalue = [1658, 111, 33, 615, 674, 0, 0, 0, 0]", fillcolor="#f4ccae"] ;
312 -> 313 ;
314 [label="IPV4_DST_ADDR <= 0.251\ngini = 0.496\nsamples = 664\nvalue = [587, 0, 2, 469, 0, 0, 0, 0, 0]", fillcolor="#fae6d7"] ;
313 -> 314 ;
315 [label="FLOW_DURATION_MILLISECONDS <= 0.0\ngini = 0.412\nsamples = 170\nvalue = [179, 0, 0, 73, 0, 0, 0, 0, 0]", fillcolor="#f0b48a"] ;
314 -> 315 ;
316 [label="gini = 0.0\nsamples = 26\nvalue = [41, 0, 0, 0, 0, 0, 0, 0, 0]", fillcolor="#e58139"] ;
315 -> 316 ;
317 [label="IN_BYTES <= 0.001\ngini = 0.453\nsamples = 144\nvalue = [138, 0, 0, 73, 0, 0, 0, 0, 0]", fillcolor="#f3c4a2"] ;
315 -> 317 ;
318 [label="IPV4_DST_ADDR <= 0.23\ngini = 0.471\nsamples = 127\nvalue = [118, 0, 0, 72, 0, 0, 0, 0, 0]", fillcolor="#f5ceb2"] ;
317 -> 318 ;
319 [label="gini = 0.0\nsamples = 7\nvalue = [9, 0, 0, 0, 0, 0, 0, 0, 0]", fillcolor="#e58139"] ;
318 -> 319 ;
320 [label="TCP_FLAGS <= 0.726\ngini = 0.479\nsamples = 120\nvalue = [109, 0, 0, 72, 0, 0, 0, 0, 0]", fillcolor="#f6d4bc"] ;
318 -> 320 ;
321 [label="gini = 0.444\nsamples = 5\nvalue = [2, 0, 0, 4, 0, 0, 0, 0, 0]", fillcolor="#9cf2c0"] ;
320 -> 321 ;
322 [label="IN_BYTES <= 0.001\ngini = 0.475\nsamples = 115\nvalue = [107, 0, 0, 68, 0, 0, 0, 0, 0]", fillcolor="#f6d1b7"] ;
320 -> 322 ;
323 [label="IN_PKTS <= 0.001\ngini = 0.468\nsamples = 111\nvalue = [106, 0, 0, 63, 0, 0, 0, 0, 0]", fillcolor="#f4ccaf"] ;
322 -> 323 ;
324 [label="gini = 0.0\nsamples = 3\nvalue = [3, 0, 0, 0, 0, 0, 0, 0, 0]", fillcolor="#e58139"] ;
323 -> 324 ;
325 [label="IN_PKTS <= 0.002\ngini = 0.471\nsamples = 108\nvalue = [103, 0, 0, 63, 0, 0, 0, 0, 0]", fillcolor="#f5ceb2"] ;
323 -> 325 ;
326 [label="L4_SRC_PORT <= 0.566\ngini = 0.472\nsamples = 107\nvalue = [102, 0, 0, 63, 0, 0, 0, 0, 0]", fillcolor="#f5cfb3"] ;
325 -> 326 ;
327 [label="gini = 0.499\nsamples = 18\nvalue = [14, 0, 0, 15, 0, 0, 0, 0, 0]", fillcolor="#f2fdf7"] ;
326 -> 327 ;
328 [label="FLOW_DURATION_MILLISECONDS <= 0.0\ngini = 0.457\nsamples = 89\nvalue = [88, 0, 0, 48, 0, 0, 0, 0, 0]", fillcolor="#f3c6a5"] ;
326 -> 328 ;
329 [label="IN_BYTES <= 0.001\ngini = 0.372\nsamples = 58\nvalue = [67, 0, 0, 22, 0, 0, 0, 0, 0]", fillcolor="#eeaa7a"] ;
328 -> 329 ;
330 [label="gini = 0.5\nsamples = 20\nvalue = [14, 0, 0, 14, 0, 0, 0, 0, 0]", fillcolor="#ffffff"] ;
329 -> 330 ;
331 [label="L4_SRC_PORT <= 0.623\ngini = 0.228\nsamples = 38\nvalue = [53, 0, 0, 8, 0, 0, 0, 0, 0]", fillcolor="#e99457"] ;
329 -> 331 ;
332 [label="gini = 0.0\nsamples = 7\nvalue = [16, 0, 0, 0, 0, 0, 0, 0, 0]", fillcolor="#e58139"] ;
331 -> 332 ;
333 [label="FLOW_DURATION_MILLISECONDS <= 0.0\ngini = 0.292\nsamples = 31\nvalue = [37, 0, 0, 8, 0, 0, 0, 0, 0]", fillcolor="#eb9c64"] ;
331 -> 333 ;
334 [label="gini = 0.444\nsamples = 2\nvalue = [1, 0, 0, 2, 0, 0, 0, 0, 0]", fillcolor="#9cf2c0"] ;
333 -> 334 ;
335 [label="IN_BYTES <= 0.001\ngini = 0.245\nsamples = 29\nvalue = [36, 0, 0, 6, 0, 0, 0, 0, 0]", fillcolor="#e9965a"] ;
333 -> 335 ;
336 [label="gini = 0.43\nsamples = 13\nvalue = [11, 0, 0, 5, 0, 0, 0, 0, 0]", fillcolor="#f1ba93"] ;
335 -> 336 ;
337 [label="gini = 0.074\nsamples = 16\nvalue = [25, 0, 0, 1, 0, 0, 0, 0, 0]", fillcolor="#e68641"] ;
335 -> 337 ;
338 [label="L4_SRC_PORT <= 0.577\ngini = 0.494\nsamples = 31\nvalue = [21, 0, 0, 26, 0, 0, 0, 0, 0]", fillcolor="#d9fae7"] ;
328 -> 338 ;
339 [label="gini = 0.0\nsamples = 2\nvalue = [4, 0, 0, 0, 0, 0, 0, 0, 0]", fillcolor="#e58139"] ;
338 -> 339 ;
340 [label="FLOW_DURATION_MILLISECONDS <= 0.0\ngini = 0.478\nsamples = 29\nvalue = [17, 0, 0, 26, 0, 0, 0, 0, 0]", fillcolor="#baf6d3"] ;
338 -> 340 ;
341 [label="gini = 0.386\nsamples = 16\nvalue = [6, 0, 0, 17, 0, 0, 0, 0, 0]", fillcolor="#7feead"] ;
340 -> 341 ;
342 [label="gini = 0.495\nsamples = 13\nvalue = [11, 0, 0, 9, 0, 0, 0, 0, 0]", fillcolor="#fae8db"] ;
340 -> 342 ;
343 [label="gini = 0.0\nsamples = 1\nvalue = [1, 0, 0, 0, 0, 0, 0, 0, 0]", fillcolor="#e58139"] ;
325 -> 343 ;
344 [label="gini = 0.278\nsamples = 4\nvalue = [1, 0, 0, 5, 0, 0, 0, 0, 0]", fillcolor="#61ea9a"] ;
322 -> 344 ;
345 [label="gini = 0.091\nsamples = 17\nvalue = [20, 0, 0, 1, 0, 0, 0, 0, 0]", fillcolor="#e68743"] ;
317 -> 345 ;
346 [label="L7_PROTO <= 0.141\ngini = 0.502\nsamples = 494\nvalue = [408, 0, 2, 396, 0, 0, 0, 0, 0]", fillcolor="#fefbf9"] ;
314 -> 346 ;
347 [label="L4_SRC_PORT <= 0.536\ngini = 0.5\nsamples = 493\nvalue = [408, 0, 0, 396, 0, 0, 0, 0, 0]", fillcolor="#fefbf9"] ;
346 -> 347 ;
348 [label="OUT_BYTES <= 0.005\ngini = 0.392\nsamples = 32\nvalue = [15, 0, 0, 41, 0, 0, 0, 0, 0]", fillcolor="#81efaf"] ;
347 -> 348 ;
349 [label="gini = 0.188\nsamples = 21\nvalue = [4, 0, 0, 34, 0, 0, 0, 0, 0]", fillcolor="#50e890"] ;
348 -> 349 ;
350 [label="gini = 0.475\nsamples = 11\nvalue = [11, 0, 0, 7, 0, 0, 0, 0, 0]", fillcolor="#f6d1b7"] ;
348 -> 350 ;
351 [label="FLOW_DURATION_MILLISECONDS <= 0.0\ngini = 0.499\nsamples = 461\nvalue = [393, 0, 0, 355, 0, 0, 0, 0, 0]", fillcolor="#fcf3ec"] ;
347 -> 351 ;
352 [label="FLOW_DURATION_MILLISECONDS <= 0.0\ngini = 0.493\nsamples = 347\nvalue = [318, 0, 0, 252, 0, 0, 0, 0, 0]", fillcolor="#fae5d6"] ;
351 -> 352 ;
353 [label="gini = 0.438\nsamples = 19\nvalue = [11, 0, 0, 23, 0, 0, 0, 0, 0]", fillcolor="#98f1bd"] ;
352 -> 353 ;
354 [label="OUT_BYTES <= 0.005\ngini = 0.489\nsamples = 328\nvalue = [307, 0, 0, 229, 0, 0, 0, 0, 0]", fillcolor="#f8dfcd"] ;
352 -> 354 ;
355 [label="L4_SRC_PORT <= 0.537\ngini = 0.493\nsamples = 216\nvalue = [192, 0, 0, 151, 0, 0, 0, 0, 0]", fillcolor="#f9e4d5"] ;
354 -> 355 ;
356 [label="gini = 0.0\nsamples = 1\nvalue = [0, 0, 0, 5, 0, 0, 0, 0, 0]", fillcolor="#39e581"] ;
355 -> 356 ;
357 [label="IN_BYTES <= 0.001\ngini = 0.491\nsamples = 215\nvalue = [192, 0, 0, 146, 0, 0, 0, 0, 0]", fillcolor="#f9e1d0"] ;
355 -> 357 ;
358 [label="L4_SRC_PORT <= 0.55\ngini = 0.494\nsamples = 207\nvalue = [181, 0, 0, 144, 0, 0, 0, 0, 0]", fillcolor="#fae5d7"] ;
357 -> 358 ;
359 [label="gini = 0.0\nsamples = 7\nvalue = [14, 0, 0, 0, 0, 0, 0, 0, 0]", fillcolor="#e58139"] ;
358 -> 359 ;
360 [label="L4_SRC_PORT <= 0.577\ngini = 0.497\nsamples = 200\nvalue = [167, 0, 0, 144, 0, 0, 0, 0, 0]", fillcolor="#fbeee4"] ;
358 -> 360 ;
361 [label="gini = 0.165\nsamples = 7\nvalue = [1, 0, 0, 10, 0, 0, 0, 0, 0]", fillcolor="#4de88e"] ;
360 -> 361 ;
362 [label="IN_BYTES <= 0.001\ngini = 0.494\nsamples = 193\nvalue = [166, 0, 0, 134, 0, 0, 0, 0, 0]", fillcolor="#fae7d9"] ;
360 -> 362 ;
363 [label="IN_BYTES <= 0.001\ngini = 0.49\nsamples = 190\nvalue = [166, 0, 0, 125, 0, 0, 0, 0, 0]", fillcolor="#f9e0ce"] ;
362 -> 363 ;
364 [label="L4_SRC_PORT <= 0.591\ngini = 0.492\nsamples = 187\nvalue = [161, 0, 0, 125, 0, 0, 0, 0, 0]", fillcolor="#f9e3d3"] ;
363 -> 364 ;
365 [label="gini = 0.0\nsamples = 7\nvalue = [12, 0, 0, 0, 0, 0, 0, 0, 0]", fillcolor="#e58139"] ;
364 -> 365 ;
366 [label="FLOW_DURATION_MILLISECONDS <= 0.0\ngini = 0.496\nsamples = 180\nvalue = [149, 0, 0, 125, 0, 0, 0, 0, 0]", fillcolor="#fbebdf"] ;
364 -> 366 ;
367 [label="gini = 0.386\nsamples = 17\nvalue = [6, 0, 0, 17, 0, 0, 0, 0, 0]", fillcolor="#7feead"] ;
366 -> 367 ;
368 [label="FLOW_DURATION_MILLISECONDS <= 0.0\ngini = 0.49\nsamples = 163\nvalue = [143, 0, 0, 108, 0, 0, 0, 0, 0]", fillcolor="#f9e0cf"] ;
366 -> 368 ;
369 [label="L4_SRC_PORT <= 0.678\ngini = 0.456\nsamples = 76\nvalue = [79, 0, 0, 43, 0, 0, 0, 0, 0]", fillcolor="#f3c6a5"] ;
368 -> 369 ;
370 [label="gini = 0.444\nsamples = 23\nvalue = [12, 0, 0, 24, 0, 0, 0, 0, 0]", fillcolor="#9cf2c0"] ;
369 -> 370 ;
371 [label="IN_BYTES <= 0.001\ngini = 0.344\nsamples = 53\nvalue = [67, 0, 0, 19, 0, 0, 0, 0, 0]", fillcolor="#eca571"] ;
369 -> 371 ;
372 [label="gini = 0.161\nsamples = 24\nvalue = [31, 0, 0, 3, 0, 0, 0, 0, 0]", fillcolor="#e88d4c"] ;
371 -> 372 ;
373 [label="L4_SRC_PORT <= 0.834\ngini = 0.426\nsamples = 29\nvalue = [36, 0, 0, 16, 0, 0, 0, 0, 0]", fillcolor="#f1b991"] ;
371 -> 373 ;
374 [label="gini = 0.307\nsamples = 20\nvalue = [30, 0, 0, 7, 0, 0, 0, 0, 0]", fillcolor="#eb9e67"] ;
373 -> 374 ;
375 [label="gini = 0.48\nsamples = 9\nvalue = [6, 0, 0, 9, 0, 0, 0, 0, 0]", fillcolor="#bdf6d5"] ;
373 -> 375 ;
376 [label="L4_SRC_PORT <= 0.793\ngini = 0.5\nsamples = 87\nvalue = [64, 0, 0, 65, 0, 0, 0, 0, 0]", fillcolor="#fcfffd"] ;
368 -> 376 ;
377 [label="FLOW_DURATION_MILLISECONDS <= 0.0\ngini = 0.489\nsamples = 47\nvalue = [43, 0, 0, 32, 0, 0, 0, 0, 0]", fillcolor="#f8dfcc"] ;
376 -> 377 ;
378 [label="gini = 0.469\nsamples = 20\nvalue = [12, 0, 0, 20, 0, 0, 0, 0, 0]", fillcolor="#b0f5cd"] ;
377 -> 378 ;
379 [label="IN_BYTES <= 0.001\ngini = 0.402\nsamples = 27\nvalue = [31, 0, 0, 12, 0, 0, 0, 0, 0]", fillcolor="#efb286"] ;
377 -> 379 ;
380 [label="gini = 0.469\nsamples = 21\nvalue = [20, 0, 0, 12, 0, 0, 0, 0, 0]", fillcolor="#f5cdb0"] ;
379 -> 380 ;
381 [label="gini = 0.0\nsamples = 6\nvalue = [11, 0, 0, 0, 0, 0, 0, 0, 0]", fillcolor="#e58139"] ;
379 -> 381 ;
382 [label="IN_PKTS <= 0.002\ngini = 0.475\nsamples = 40\nvalue = [21, 0, 0, 33, 0, 0, 0, 0, 0]", fillcolor="#b7f6d1"] ;
376 -> 382 ;
383 [label="L4_SRC_PORT <= 0.832\ngini = 0.464\nsamples = 38\nvalue = [19, 0, 0, 33, 0, 0, 0, 0, 0]", fillcolor="#abf4ca"] ;
382 -> 383 ;
384 [label="gini = 0.117\nsamples = 12\nvalue = [1, 0, 0, 15, 0, 0, 0, 0, 0]", fillcolor="#46e789"] ;
383 -> 384 ;
385 [label="OUT_BYTES <= 0.005\ngini = 0.5\nsamples = 26\nvalue = [18, 0, 0, 18, 0, 0, 0, 0, 0]", fillcolor="#ffffff"] ;
383 -> 385 ;
386 [label="gini = 0.496\nsamples = 24\nvalue = [15, 0, 0, 18, 0, 0, 0, 0, 0]", fillcolor="#defbea"] ;
385 -> 386 ;
387 [label="gini = 0.0\nsamples = 2\nvalue = [3, 0, 0, 0, 0, 0, 0, 0, 0]", fillcolor="#e58139"] ;
385 -> 387 ;
388 [label="gini = 0.0\nsamples = 2\nvalue = [2, 0, 0, 0, 0, 0, 0, 0, 0]", fillcolor="#e58139"] ;
382 -> 388 ;
389 [label="gini = 0.0\nsamples = 3\nvalue = [5, 0, 0, 0, 0, 0, 0, 0, 0]", fillcolor="#e58139"] ;
363 -> 389 ;
390 [label="gini = 0.0\nsamples = 3\nvalue = [0, 0, 0, 9, 0, 0, 0, 0, 0]", fillcolor="#39e581"] ;
362 -> 390 ;
391 [label="gini = 0.26\nsamples = 8\nvalue = [11, 0, 0, 2, 0, 0, 0, 0, 0]", fillcolor="#ea985d"] ;
357 -> 391 ;
392 [label="IN_BYTES <= 0.001\ngini = 0.482\nsamples = 112\nvalue = [115, 0, 0, 78, 0, 0, 0, 0, 0]", fillcolor="#f7d6bf"] ;
354 -> 392 ;
393 [label="gini = 0.278\nsamples = 3\nvalue = [1, 0, 0, 5, 0, 0, 0, 0, 0]", fillcolor="#61ea9a"] ;
392 -> 393 ;
394 [label="IN_BYTES <= 0.001\ngini = 0.476\nsamples = 109\nvalue = [114, 0, 0, 73, 0, 0, 0, 0, 0]", fillcolor="#f6d2b8"] ;
392 -> 394 ;
395 [label="L4_SRC_PORT <= 0.553\ngini = 0.442\nsamples = 58\nvalue = [63, 0, 0, 31, 0, 0, 0, 0, 0]", fillcolor="#f2bf9a"] ;
394 -> 395 ;
396 [label="gini = 0.0\nsamples = 2\nvalue = [0, 0, 0, 4, 0, 0, 0, 0, 0]", fillcolor="#39e581"] ;
395 -> 396 ;
397 [label="L4_SRC_PORT <= 0.842\ngini = 0.42\nsamples = 56\nvalue = [63, 0, 0, 27, 0, 0, 0, 0, 0]", fillcolor="#f0b78e"] ;
395 -> 397 ;
398 [label="L4_SRC_PORT <= 0.786\ngini = 0.361\nsamples = 44\nvalue = [58, 0, 0, 18, 0, 0, 0, 0, 0]", fillcolor="#eda876"] ;
397 -> 398 ;
399 [label="L4_SRC_PORT <= 0.739\ngini = 0.419\nsamples = 35\nvalue = [40, 0, 0, 17, 0, 0, 0, 0, 0]", fillcolor="#f0b78d"] ;
398 -> 399 ;
400 [label="gini = 0.272\nsamples = 24\nvalue = [31, 0, 0, 6, 0, 0, 0, 0, 0]", fillcolor="#ea995f"] ;
399 -> 400 ;
401 [label="gini = 0.495\nsamples = 11\nvalue = [9, 0, 0, 11, 0, 0, 0, 0, 0]", fillcolor="#dbfae8"] ;
399 -> 401 ;
402 [label="gini = 0.1\nsamples = 9\nvalue = [18, 0, 0, 1, 0, 0, 0, 0, 0]", fillcolor="#e68844"] ;
398 -> 402 ;
403 [label="gini = 0.459\nsamples = 12\nvalue = [5, 0, 0, 9, 0, 0, 0, 0, 0]", fillcolor="#a7f3c7"] ;
397 -> 403 ;
404 [label="FLOW_DURATION_MILLISECONDS <= 0.0\ngini = 0.495\nsamples = 51\nvalue = [51, 0, 0, 42, 0, 0, 0, 0, 0]", fillcolor="#fae9dc"] ;
394 -> 404 ;
405 [label="FLOW_DURATION_MILLISECONDS <= 0.0\ngini = 0.44\nsamples = 28\nvalue = [33, 0, 0, 16, 0, 0, 0, 0, 0]", fillcolor="#f2be99"] ;
404 -> 405 ;
406 [label="gini = 0.444\nsamples = 5\nvalue = [4, 0, 0, 8, 0, 0, 0, 0, 0]", fillcolor="#9cf2c0"] ;
405 -> 406 ;
407 [label="gini = 0.339\nsamples = 23\nvalue = [29, 0, 0, 8, 0, 0, 0, 0, 0]", fillcolor="#eca470"] ;
405 -> 407 ;
408 [label="gini = 0.483\nsamples = 23\nvalue = [18, 0, 0, 26, 0, 0, 0, 0, 0]", fillcolor="#c2f7d8"] ;
404 -> 408 ;
409 [label="FLOW_DURATION_MILLISECONDS <= 0.0\ngini = 0.488\nsamples = 114\nvalue = [75, 0, 0, 103, 0, 0, 0, 0, 0]", fillcolor="#c9f8dd"] ;
351 -> 409 ;
410 [label="FLOW_DURATION_MILLISECONDS <= 0.0\ngini = 0.444\nsamples = 86\nvalue = [45, 0, 0, 90, 0, 0, 0, 0, 0]", fillcolor="#9cf2c0"] ;
409 -> 410 ;
411 [label="IN_PKTS <= 0.001\ngini = 0.282\nsamples = 27\nvalue = [8, 0, 0, 39, 0, 0, 0, 0, 0]", fillcolor="#62ea9b"] ;
410 -> 411 ;
412 [label="gini = 0.0\nsamples = 2\nvalue = [0, 0, 0, 6, 0, 0, 0, 0, 0]", fillcolor="#39e581"] ;
411 -> 412 ;
413 [label="FLOW_DURATION_MILLISECONDS <= 0.0\ngini = 0.314\nsamples = 25\nvalue = [8, 0, 0, 33, 0, 0, 0, 0, 0]", fillcolor="#69eba0"] ;
411 -> 413 ;
414 [label="gini = 0.36\nsamples = 23\nvalue = [8, 0, 0, 26, 0, 0, 0, 0, 0]", fillcolor="#76eda8"] ;
413 -> 414 ;
415 [label="gini = 0.0\nsamples = 2\nvalue = [0, 0, 0, 7, 0, 0, 0, 0, 0]", fillcolor="#39e581"] ;
413 -> 415 ;
416 [label="FLOW_DURATION_MILLISECONDS <= 0.0\ngini = 0.487\nsamples = 59\nvalue = [37, 0, 0, 51, 0, 0, 0, 0, 0]", fillcolor="#c9f8dc"] ;
410 -> 416 ;
417 [label="L4_SRC_PORT <= 0.594\ngini = 0.456\nsamples = 26\nvalue = [24, 0, 0, 13, 0, 0, 0, 0, 0]", fillcolor="#f3c5a4"] ;
416 -> 417 ;
418 [label="gini = 0.346\nsamples = 6\nvalue = [2, 0, 0, 7, 0, 0, 0, 0, 0]", fillcolor="#72eca5"] ;
417 -> 418 ;
419 [label="gini = 0.337\nsamples = 20\nvalue = [22, 0, 0, 6, 0, 0, 0, 0, 0]", fillcolor="#eca36f"] ;
417 -> 419 ;
420 [label="OUT_BYTES <= 0.001\ngini = 0.38\nsamples = 33\nvalue = [13, 0, 0, 38, 0, 0, 0, 0, 0]", fillcolor="#7deeac"] ;
416 -> 420 ;
421 [label="gini = 0.0\nsamples = 1\nvalue = [1, 0, 0, 0, 0, 0, 0, 0, 0]", fillcolor="#e58139"] ;
420 -> 421 ;
422 [label="IN_PKTS <= 0.002\ngini = 0.365\nsamples = 32\nvalue = [12, 0, 0, 38, 0, 0, 0, 0, 0]", fillcolor="#78eda9"] ;
420 -> 422 ;
423 [label="OUT_BYTES <= 0.002\ngini = 0.397\nsamples = 29\nvalue = [12, 0, 0, 32, 0, 0, 0, 0, 0]", fillcolor="#83efb0"] ;
422 -> 423 ;
424 [label="gini = 0.198\nsamples = 5\nvalue = [1, 0, 0, 8, 0, 0, 0, 0, 0]", fillcolor="#52e891"] ;
423 -> 424 ;
425 [label="gini = 0.431\nsamples = 24\nvalue = [11, 0, 0, 24, 0, 0, 0, 0, 0]", fillcolor="#94f1bb"] ;
423 -> 425 ;
426 [label="gini = 0.0\nsamples = 3\nvalue = [0, 0, 0, 6, 0, 0, 0, 0, 0]", fillcolor="#39e581"] ;
422 -> 426 ;
427 [label="IN_PKTS <= 0.002\ngini = 0.422\nsamples = 28\nvalue = [30, 0, 0, 13, 0, 0, 0, 0, 0]", fillcolor="#f0b88f"] ;
409 -> 427 ;
428 [label="L4_SRC_PORT <= 0.547\ngini = 0.361\nsamples = 25\nvalue = [29, 0, 0, 9, 0, 0, 0, 0, 0]", fillcolor="#eda876"] ;
427 -> 428 ;
429 [label="gini = 0.0\nsamples = 1\nvalue = [0, 0, 0, 2, 0, 0, 0, 0, 0]", fillcolor="#39e581"] ;
428 -> 429 ;
430 [label="gini = 0.313\nsamples = 24\nvalue = [29, 0, 0, 7, 0, 0, 0, 0, 0]", fillcolor="#eb9f69"] ;
428 -> 430 ;
431 [label="gini = 0.32\nsamples = 3\nvalue = [1, 0, 0, 4, 0, 0, 0, 0, 0]", fillcolor="#6aeca0"] ;
427 -> 431 ;
432 [label="gini = 0.0\nsamples = 1\nvalue = [0, 0, 2, 0, 0, 0, 0, 0, 0]", fillcolor="#64e539"] ;
346 -> 432 ;
433 [label="L4_DST_PORT <= 0.007\ngini = 0.604\nsamples = 1277\nvalue = [1071, 111, 31, 146, 674, 0, 0, 0, 0]", fillcolor="#f7dac5"] ;
313 -> 433 ;
434 [label="IPV4_SRC_ADDR <= 0.773\ngini = 0.594\nsamples = 1257\nvalue = [1066, 111, 3, 146, 674, 0, 0, 0, 0]", fillcolor="#f7dac4"] ;
433 -> 434 ;
435 [label="IPV4_SRC_ADDR <= 0.742\ngini = 0.543\nsamples = 1034\nvalue = [882, 2, 0, 90, 674, 0, 0, 0, 0]", fillcolor="#f9e4d5"] ;
434 -> 435 ;
436 [label="IPV4_DST_ADDR <= 0.262\ngini = 0.664\nsamples = 213\nvalue = [129, 2, 0, 90, 110, 0, 0, 0, 0]", fillcolor="#fdf4ee"] ;
435 -> 436 ;
437 [label="IN_BYTES <= 0.001\ngini = 0.602\nsamples = 100\nvalue = [75, 2, 0, 18, 65, 0, 0, 0, 0]", fillcolor="#fcf2ea"] ;
436 -> 437 ;
438 [label="L4_SRC_PORT <= 0.828\ngini = 0.529\nsamples = 40\nvalue = [38, 2, 0, 4, 17, 0, 0, 0, 0]", fillcolor="#f3c3a0"] ;
437 -> 438 ;
439 [label="TCP_FLAGS <= 0.71\ngini = 0.413\nsamples = 30\nvalue = [34, 2, 0, 1, 9, 0, 0, 0, 0]", fillcolor="#edaa79"] ;
438 -> 439 ;
440 [label="gini = 0.277\nsamples = 11\nvalue = [16, 2, 0, 0, 1, 0, 0, 0, 0]", fillcolor="#ea975c"] ;
439 -> 440 ;
441 [label="gini = 0.466\nsamples = 19\nvalue = [18, 0, 0, 1, 8, 0, 0, 0, 0]", fillcolor="#f1bd97"] ;
439 -> 441 ;
442 [label="gini = 0.604\nsamples = 10\nvalue = [4, 0, 0, 3, 8, 0, 0, 0, 0]", fillcolor="#b7f0f6"] ;
438 -> 442 ;
443 [label="L4_SRC_PORT <= 0.508\ngini = 0.605\nsamples = 60\nvalue = [37, 0, 0, 14, 48, 0, 0, 0, 0]", fillcolor="#dcf8fa"] ;
437 -> 443 ;
444 [label="gini = 0.0\nsamples = 1\nvalue = [0, 0, 0, 3, 0, 0, 0, 0, 0]", fillcolor="#39e581"] ;
443 -> 444 ;
445 [label="IN_BYTES <= 0.001\ngini = 0.588\nsamples = 59\nvalue = [37, 0, 0, 11, 48, 0, 0, 0, 0]", fillcolor="#daf8fa"] ;
443 -> 445 ;
446 [label="gini = 0.483\nsamples = 13\nvalue = [7, 0, 0, 2, 18, 0, 0, 0, 0]", fillcolor="#92e9f1"] ;
445 -> 446 ;
447 [label="IN_BYTES <= 0.001\ngini = 0.605\nsamples = 46\nvalue = [30, 0, 0, 9, 30, 0, 0, 0, 0]", fillcolor="#ffffff"] ;
445 -> 447 ;
448 [label="gini = 0.142\nsamples = 8\nvalue = [12, 0, 0, 0, 1, 0, 0, 0, 0]", fillcolor="#e78c49"] ;
447 -> 448 ;
449 [label="L4_SRC_PORT <= 0.845\ngini = 0.603\nsamples = 38\nvalue = [18, 0, 0, 9, 29, 0, 0, 0, 0]", fillcolor="#c6f3f7"] ;
447 -> 449 ;
450 [label="TCP_FLAGS <= 0.984\ngini = 0.587\nsamples = 35\nvalue = [14, 0, 0, 9, 29, 0, 0, 0, 0]", fillcolor="#b1eff5"] ;
449 -> 450 ;
451 [label="FLOW_DURATION_MILLISECONDS <= 0.0\ngini = 0.574\nsamples = 34\nvalue = [12, 0, 0, 9, 29, 0, 0, 0, 0]", fillcolor="#a6edf3"] ;
450 -> 451 ;
452 [label="IN_PKTS <= 0.002\ngini = 0.641\nsamples = 26\nvalue = [11, 0, 0, 9, 17, 0, 0, 0, 0]", fillcolor="#d1f6f9"] ;
451 -> 452 ;
453 [label="gini = 0.531\nsamples = 17\nvalue = [10, 0, 0, 1, 13, 0, 0, 0, 0]", fillcolor="#d5f6f9"] ;
452 -> 453 ;
454 [label="gini = 0.521\nsamples = 9\nvalue = [1, 0, 0, 8, 4, 0, 0, 0, 0]", fillcolor="#a7f3c7"] ;
452 -> 454 ;
455 [label="gini = 0.142\nsamples = 8\nvalue = [1, 0, 0, 0, 12, 0, 0, 0, 0]", fillcolor="#49dae7"] ;
451 -> 455 ;
456 [label="gini = 0.0\nsamples = 1\nvalue = [2, 0, 0, 0, 0, 0, 0, 0, 0]", fillcolor="#e58139"] ;
450 -> 456 ;
457 [label="gini = 0.0\nsamples = 3\nvalue = [4, 0, 0, 0, 0, 0, 0, 0, 0]", fillcolor="#e58139"] ;
449 -> 457 ;
458 [label="L4_SRC_PORT <= 0.887\ngini = 0.654\nsamples = 113\nvalue = [54, 0, 0, 72, 45, 0, 0, 0, 0]", fillcolor="#e1fbec"] ;
436 -> 458 ;
459 [label="OUT_PKTS <= 0.001\ngini = 0.666\nsamples = 90\nvalue = [44, 0, 0, 47, 41, 0, 0, 0, 0]", fillcolor="#f8fefb"] ;
458 -> 459 ;
460 [label="L4_SRC_PORT <= 0.796\ngini = 0.66\nsamples = 74\nvalue = [29, 0, 0, 41, 36, 0, 0, 0, 0]", fillcolor="#f1fdf6"] ;
459 -> 460 ;
461 [label="IN_BYTES <= 0.001\ngini = 0.632\nsamples = 56\nvalue = [16, 0, 0, 38, 30, 0, 0, 0, 0]", fillcolor="#e2fbec"] ;
460 -> 461 ;
462 [label="IN_BYTES <= 0.001\ngini = 0.643\nsamples = 53\nvalue = [16, 0, 0, 31, 30, 0, 0, 0, 0]", fillcolor="#fbfefc"] ;
461 -> 462 ;
463 [label="gini = 0.46\nsamples = 7\nvalue = [2, 0, 0, 1, 7, 0, 0, 0, 0]", fillcolor="#83e6ef"] ;
462 -> 463 ;
464 [label="IN_PKTS <= 0.002\ngini = 0.638\nsamples = 46\nvalue = [14, 0, 0, 30, 23, 0, 0, 0, 0]", fillcolor="#dffbeb"] ;
462 -> 464 ;
465 [label="OUT_BYTES <= 0.002\ngini = 0.633\nsamples = 44\nvalue = [14, 0, 0, 30, 19, 0, 0, 0, 0]", fillcolor="#cef8e0"] ;
464 -> 465 ;
466 [label="L4_SRC_PORT <= 0.74\ngini = 0.612\nsamples = 29\nvalue = [10, 0, 0, 22, 10, 0, 0, 0, 0]", fillcolor="#b5f5d0"] ;
465 -> 466 ;
467 [label="gini = 0.566\nsamples = 21\nvalue = [10, 0, 0, 16, 3, 0, 0, 0, 0]", fillcolor="#c0f7d7"] ;
466 -> 467 ;
468 [label="gini = 0.497\nsamples = 8\nvalue = [0, 0, 0, 6, 7, 0, 0, 0, 0]", fillcolor="#e3f9fb"] ;
466 -> 468 ;
469 [label="gini = 0.635\nsamples = 15\nvalue = [4, 0, 0, 8, 9, 0, 0, 0, 0]", fillcolor="#f0fcfd"] ;
465 -> 469 ;
470 [label="gini = 0.0\nsamples = 2\nvalue = [0, 0, 0, 0, 4, 0, 0, 0, 0]", fillcolor="#39d7e5"] ;
464 -> 470 ;
471 [label="gini = 0.0\nsamples = 3\nvalue = [0, 0, 0, 7, 0, 0, 0, 0, 0]", fillcolor="#39e581"] ;
461 -> 471 ;
472 [label="gini = 0.558\nsamples = 18\nvalue = [13, 0, 0, 3, 6, 0, 0, 0, 0]", fillcolor="#f4c8a8"] ;
460 -> 472 ;
473 [label="gini = 0.577\nsamples = 16\nvalue = [15, 0, 0, 6, 5, 0, 0, 0, 0]", fillcolor="#f3c6a6"] ;
459 -> 473 ;
474 [label="gini = 0.513\nsamples = 23\nvalue = [10, 0, 0, 25, 4, 0, 0, 0, 0]", fillcolor="#99f2be"] ;
458 -> 474 ;
475 [label="L4_SRC_PORT <= 0.874\ngini = 0.49\nsamples = 821\nvalue = [753, 0, 0, 0, 564, 0, 0, 0, 0]", fillcolor="#f8dfcd"] ;
435 -> 475 ;
476 [label="OUT_PKTS <= 0.001\ngini = 0.494\nsamples = 719\nvalue = [638, 0, 0, 0, 513, 0, 0, 0, 0]", fillcolor="#fae6d8"] ;
475 -> 476 ;
477 [label="IPV4_DST_ADDR <= 0.243\ngini = 0.446\nsamples = 95\nvalue = [101, 0, 0, 0, 51, 0, 0, 0, 0]", fillcolor="#f2c19d"] ;
476 -> 477 ;
478 [label="L4_SRC_PORT <= 0.854\ngini = 0.488\nsamples = 77\nvalue = [68, 0, 0, 0, 50, 0, 0, 0, 0]", fillcolor="#f8decb"] ;
477 -> 478 ;
479 [label="L4_SRC_PORT <= 0.754\ngini = 0.479\nsamples = 74\nvalue = [68, 0, 0, 0, 45, 0, 0, 0, 0]", fillcolor="#f6d4bc"] ;
478 -> 479 ;
480 [label="IN_PKTS <= 0.001\ngini = 0.499\nsamples = 48\nvalue = [38, 0, 0, 0, 35, 0, 0, 0, 0]", fillcolor="#fdf5ef"] ;
479 -> 480 ;
481 [label="gini = 0.457\nsamples = 24\nvalue = [22, 0, 0, 0, 12, 0, 0, 0, 0]", fillcolor="#f3c6a5"] ;
480 -> 481 ;
482 [label="gini = 0.484\nsamples = 24\nvalue = [16, 0, 0, 0, 23, 0, 0, 0, 0]", fillcolor="#c3f3f7"] ;
480 -> 482 ;
483 [label="TCP_FLAGS <= 0.823\ngini = 0.375\nsamples = 26\nvalue = [30, 0, 0, 0, 10, 0, 0, 0, 0]", fillcolor="#eeab7b"] ;
479 -> 483 ;
484 [label="gini = 0.394\nsamples = 24\nvalue = [27, 0, 0, 0, 10, 0, 0, 0, 0]", fillcolor="#efb082"] ;
483 -> 484 ;
485 [label="gini = 0.0\nsamples = 2\nvalue = [3, 0, 0, 0, 0, 0, 0, 0, 0]", fillcolor="#e58139"] ;
483 -> 485 ;
486 [label="gini = 0.0\nsamples = 3\nvalue = [0, 0, 0, 0, 5, 0, 0, 0, 0]", fillcolor="#39d7e5"] ;
478 -> 486 ;
487 [label="gini = 0.057\nsamples = 18\nvalue = [33, 0, 0, 0, 1, 0, 0, 0, 0]", fillcolor="#e6853f"] ;
477 -> 487 ;
488 [label="OUT_BYTES <= 0.001\ngini = 0.497\nsamples = 624\nvalue = [537, 0, 0, 0, 462, 0, 0, 0, 0]", fillcolor="#fbede3"] ;
476 -> 488 ;
489 [label="FLOW_DURATION_MILLISECONDS <= 0.0\ngini = 0.423\nsamples = 33\nvalue = [17, 0, 0, 0, 39, 0, 0, 0, 0]", fillcolor="#8fe8f0"] ;
488 -> 489 ;
490 [label="gini = 0.214\nsamples = 24\nvalue = [5, 0, 0, 0, 36, 0, 0, 0, 0]", fillcolor="#54dde9"] ;
489 -> 490 ;
491 [label="gini = 0.32\nsamples = 9\nvalue = [12, 0, 0, 0, 3, 0, 0, 0, 0]", fillcolor="#eca06a"] ;
489 -> 491 ;
492 [label="FLOW_DURATION_MILLISECONDS <= 0.0\ngini = 0.495\nsamples = 591\nvalue = [520, 0, 0, 0, 423, 0, 0, 0, 0]", fillcolor="#fae7da"] ;
488 -> 492 ;
493 [label="FLOW_DURATION_MILLISECONDS <= 0.0\ngini = 0.476\nsamples = 295\nvalue = [290, 0, 0, 0, 185, 0, 0, 0, 0]", fillcolor="#f6d1b7"] ;
492 -> 493 ;
494 [label="IN_PKTS <= 0.002\ngini = 0.481\nsamples = 276\nvalue = [270, 0, 0, 0, 182, 0, 0, 0, 0]", fillcolor="#f7d6be"] ;
493 -> 494 ;
495 [label="L4_SRC_PORT <= 0.849\ngini = 0.48\nsamples = 275\nvalue = [270, 0, 0, 0, 180, 0, 0, 0, 0]", fillcolor="#f6d5bd"] ;
494 -> 495 ;
496 [label="FLOW_DURATION_MILLISECONDS <= 0.0\ngini = 0.468\nsamples = 251\nvalue = [256, 0, 0, 0, 153, 0, 0, 0, 0]", fillcolor="#f5ccaf"] ;
495 -> 496 ;
497 [label="IN_BYTES <= 0.001\ngini = 0.461\nsamples = 240\nvalue = [251, 0, 0, 0, 141, 0, 0, 0, 0]", fillcolor="#f4c8a8"] ;
496 -> 497 ;
498 [label="IN_BYTES <= 0.001\ngini = 0.448\nsamples = 227\nvalue = [246, 0, 0, 0, 126, 0, 0, 0, 0]", fillcolor="#f2c29e"] ;
497 -> 498 ;
499 [label="L4_SRC_PORT <= 0.826\ngini = 0.483\nsamples = 121\nvalue = [122, 0, 0, 0, 84, 0, 0, 0, 0]", fillcolor="#f7d8c1"] ;
498 -> 499 ;
500 [label="IN_BYTES <= 0.001\ngini = 0.472\nsamples = 114\nvalue = [120, 0, 0, 0, 74, 0, 0, 0, 0]", fillcolor="#f5cfb3"] ;
499 -> 500 ;
501 [label="gini = 0.483\nsamples = 14\nvalue = [9, 0, 0, 0, 13, 0, 0, 0, 0]", fillcolor="#c2f3f7"] ;
500 -> 501 ;
502 [label="L4_SRC_PORT <= 0.617\ngini = 0.458\nsamples = 100\nvalue = [111, 0, 0, 0, 61, 0, 0, 0, 0]", fillcolor="#f3c6a6"] ;
500 -> 502 ;
503 [label="FLOW_DURATION_MILLISECONDS <= 0.0\ngini = 0.499\nsamples = 33\nvalue = [29, 0, 0, 0, 27, 0, 0, 0, 0]", fillcolor="#fdf6f1"] ;
502 -> 503 ;
504 [label="FLOW_DURATION_MILLISECONDS <= 0.0\ngini = 0.495\nsamples = 28\nvalue = [22, 0, 0, 0, 27, 0, 0, 0, 0]", fillcolor="#daf8fa"] ;
503 -> 504 ;
505 [label="gini = 0.491\nsamples = 23\nvalue = [21, 0, 0, 0, 16, 0, 0, 0, 0]", fillcolor="#f9e1d0"] ;
504 -> 505 ;
506 [label="gini = 0.153\nsamples = 5\nvalue = [1, 0, 0, 0, 11, 0, 0, 0, 0]", fillcolor="#4bdbe7"] ;
504 -> 506 ;
507 [label="gini = 0.0\nsamples = 5\nvalue = [7, 0, 0, 0, 0, 0, 0, 0, 0]", fillcolor="#e58139"] ;
503 -> 507 ;
508 [label="IN_PKTS <= 0.001\ngini = 0.414\nsamples = 67\nvalue = [82, 0, 0, 0, 34, 0, 0, 0, 0]", fillcolor="#f0b58b"] ;
502 -> 508 ;
509 [label="gini = 0.5\nsamples = 9\nvalue = [8, 0, 0, 0, 8, 0, 0, 0, 0]", fillcolor="#ffffff"] ;
508 -> 509 ;
510 [label="OUT_BYTES <= 0.007\ngini = 0.385\nsamples = 58\nvalue = [74, 0, 0, 0, 26, 0, 0, 0, 0]", fillcolor="#eead7f"] ;
508 -> 510 ;
511 [label="gini = 0.225\nsamples = 19\nvalue = [27, 0, 0, 0, 4, 0, 0, 0, 0]", fillcolor="#e99456"] ;
510 -> 511 ;
512 [label="IN_BYTES <= 0.001\ngini = 0.434\nsamples = 39\nvalue = [47, 0, 0, 0, 22, 0, 0, 0, 0]", fillcolor="#f1bc96"] ;
510 -> 512 ;
513 [label="L4_SRC_PORT <= 0.724\ngini = 0.458\nsamples = 37\nvalue = [40, 0, 0, 0, 22, 0, 0, 0, 0]", fillcolor="#f3c6a6"] ;
512 -> 513 ;
514 [label="gini = 0.495\nsamples = 22\nvalue = [22, 0, 0, 0, 18, 0, 0, 0, 0]", fillcolor="#fae8db"] ;
513 -> 514 ;
515 [label="gini = 0.298\nsamples = 15\nvalue = [18, 0, 0, 0, 4, 0, 0, 0, 0]", fillcolor="#eb9d65"] ;
513 -> 515 ;
516 [label="gini = 0.0\nsamples = 2\nvalue = [7, 0, 0, 0, 0, 0, 0, 0, 0]", fillcolor="#e58139"] ;
512 -> 516 ;
517 [label="gini = 0.278\nsamples = 7\nvalue = [2, 0, 0, 0, 10, 0, 0, 0, 0]", fillcolor="#61dfea"] ;
499 -> 517 ;
518 [label="IN_BYTES <= 0.001\ngini = 0.378\nsamples = 106\nvalue = [124, 0, 0, 0, 42, 0, 0, 0, 0]", fillcolor="#eeac7c"] ;
498 -> 518 ;
519 [label="L4_SRC_PORT <= 0.805\ngini = 0.34\nsamples = 89\nvalue = [112, 0, 0, 0, 31, 0, 0, 0, 0]", fillcolor="#eca470"] ;
518 -> 519 ;
520 [label="FLOW_DURATION_MILLISECONDS <= 0.0\ngini = 0.383\nsamples = 77\nvalue = [89, 0, 0, 0, 31, 0, 0, 0, 0]", fillcolor="#eead7e"] ;
519 -> 520 ;
521 [label="IN_PKTS <= 0.002\ngini = 0.371\nsamples = 76\nvalue = [89, 0, 0, 0, 29, 0, 0, 0, 0]", fillcolor="#edaa7a"] ;
520 -> 521 ;
522 [label="FLOW_DURATION_MILLISECONDS <= 0.0\ngini = 0.309\nsamples = 56\nvalue = [72, 0, 0, 0, 17, 0, 0, 0, 0]", fillcolor="#eb9f68"] ;
521 -> 522 ;
523 [label="gini = 0.0\nsamples = 6\nvalue = [11, 0, 0, 0, 0, 0, 0, 0, 0]", fillcolor="#e58139"] ;
522 -> 523 ;
524 [label="FLOW_DURATION_MILLISECONDS <= 0.0\ngini = 0.341\nsamples = 50\nvalue = [61, 0, 0, 0, 17, 0, 0, 0, 0]", fillcolor="#eca470"] ;
522 -> 524 ;
525 [label="gini = 0.444\nsamples = 3\nvalue = [1, 0, 0, 0, 2, 0, 0, 0, 0]", fillcolor="#9cebf2"] ;
524 -> 525 ;
526 [label="FLOW_DURATION_MILLISECONDS <= 0.0\ngini = 0.32\nsamples = 47\nvalue = [60, 0, 0, 0, 15, 0, 0, 0, 0]", fillcolor="#eca06a"] ;
524 -> 526 ;
527 [label="L4_SRC_PORT <= 0.787\ngini = 0.348\nsamples = 43\nvalue = [52, 0, 0, 0, 15, 0, 0, 0, 0]", fillcolor="#eca572"] ;
526 -> 527 ;
528 [label="L4_SRC_PORT <= 0.687\ngini = 0.252\nsamples = 41\nvalue = [52, 0, 0, 0, 9, 0, 0, 0, 0]", fillcolor="#ea975b"] ;
527 -> 528 ;
529 [label="L4_SRC_PORT <= 0.643\ngini = 0.368\nsamples = 26\nvalue = [28, 0, 0, 0, 9, 0, 0, 0, 0]", fillcolor="#edaa79"] ;
528 -> 529 ;
530 [label="gini = 0.245\nsamples = 19\nvalue = [24, 0, 0, 0, 4, 0, 0, 0, 0]", fillcolor="#e9965a"] ;
529 -> 530 ;
531 [label="gini = 0.494\nsamples = 7\nvalue = [4, 0, 0, 0, 5, 0, 0, 0, 0]", fillcolor="#d7f7fa"] ;
529 -> 531 ;
532 [label="gini = 0.0\nsamples = 15\nvalue = [24, 0, 0, 0, 0, 0, 0, 0, 0]", fillcolor="#e58139"] ;
528 -> 532 ;
533 [label="gini = 0.0\nsamples = 2\nvalue = [0, 0, 0, 0, 6, 0, 0, 0, 0]", fillcolor="#39d7e5"] ;
527 -> 533 ;
534 [label="gini = 0.0\nsamples = 4\nvalue = [8, 0, 0, 0, 0, 0, 0, 0, 0]", fillcolor="#e58139"] ;
526 -> 534 ;
535 [label="gini = 0.485\nsamples = 20\nvalue = [17, 0, 0, 0, 12, 0, 0, 0, 0]", fillcolor="#f7dac5"] ;
521 -> 535 ;
536 [label="gini = 0.0\nsamples = 1\nvalue = [0, 0, 0, 0, 2, 0, 0, 0, 0]", fillcolor="#39d7e5"] ;
520 -> 536 ;
537 [label="gini = 0.0\nsamples = 12\nvalue = [23, 0, 0, 0, 0, 0, 0, 0, 0]", fillcolor="#e58139"] ;
519 -> 537 ;
538 [label="gini = 0.499\nsamples = 17\nvalue = [12, 0, 0, 0, 11, 0, 0, 0, 0]", fillcolor="#fdf5ef"] ;
518 -> 538 ;
539 [label="gini = 0.375\nsamples = 13\nvalue = [5, 0, 0, 0, 15, 0, 0, 0, 0]", fillcolor="#7be4ee"] ;
497 -> 539 ;
540 [label="gini = 0.415\nsamples = 11\nvalue = [5, 0, 0, 0, 12, 0, 0, 0, 0]", fillcolor="#8be8f0"] ;
496 -> 540 ;
541 [label="gini = 0.45\nsamples = 24\nvalue = [14, 0, 0, 0, 27, 0, 0, 0, 0]", fillcolor="#a0ecf2"] ;
495 -> 541 ;
542 [label="gini = 0.0\nsamples = 1\nvalue = [0, 0, 0, 0, 2, 0, 0, 0, 0]", fillcolor="#39d7e5"] ;
494 -> 542 ;
543 [label="gini = 0.227\nsamples = 19\nvalue = [20, 0, 0, 0, 3, 0, 0, 0, 0]", fillcolor="#e99457"] ;
493 -> 543 ;
544 [label="L4_SRC_PORT <= 0.867\ngini = 0.5\nsamples = 296\nvalue = [230, 0, 0, 0, 238, 0, 0, 0, 0]", fillcolor="#f8fefe"] ;
492 -> 544 ;
545 [label="IN_BYTES <= 0.001\ngini = 0.5\nsamples = 286\nvalue = [229, 0, 0, 0, 223, 0, 0, 0, 0]", fillcolor="#fefcfa"] ;
544 -> 545 ;
546 [label="FLOW_DURATION_MILLISECONDS <= 0.0\ngini = 0.5\nsamples = 267\nvalue = [206, 0, 0, 0, 219, 0, 0, 0, 0]", fillcolor="#f3fdfd"] ;
545 -> 546 ;
547 [label="OUT_BYTES <= 0.005\ngini = 0.496\nsamples = 228\nvalue = [163, 0, 0, 0, 197, 0, 0, 0, 0]", fillcolor="#ddf8fb"] ;
546 -> 547 ;
548 [label="FLOW_DURATION_MILLISECONDS <= 0.0\ngini = 0.5\nsamples = 117\nvalue = [94, 0, 0, 0, 92, 0, 0, 0, 0]", fillcolor="#fefcfb"] ;
547 -> 548 ;
549 [label="FLOW_DURATION_MILLISECONDS <= 0.0\ngini = 0.498\nsamples = 109\nvalue = [90, 0, 0, 0, 79, 0, 0, 0, 0]", fillcolor="#fcf0e7"] ;
548 -> 549 ;
550 [label="OUT_BYTES <= 0.001\ngini = 0.459\nsamples = 26\nvalue = [15, 0, 0, 0, 27, 0, 0, 0, 0]", fillcolor="#a7edf3"] ;
549 -> 550 ;
551 [label="gini = 0.0\nsamples = 1\nvalue = [3, 0, 0, 0, 0, 0, 0, 0, 0]", fillcolor="#e58139"] ;
550 -> 551 ;
552 [label="OUT_PKTS <= 0.001\ngini = 0.426\nsamples = 25\nvalue = [12, 0, 0, 0, 27, 0, 0, 0, 0]", fillcolor="#91e9f1"] ;
550 -> 552 ;
553 [label="gini = 0.291\nsamples = 12\nvalue = [3, 0, 0, 0, 14, 0, 0, 0, 0]", fillcolor="#63e0eb"] ;
552 -> 553 ;
554 [label="gini = 0.483\nsamples = 13\nvalue = [9, 0, 0, 0, 13, 0, 0, 0, 0]", fillcolor="#c2f3f7"] ;
552 -> 554 ;
555 [label="L4_SRC_PORT <= 0.706\ngini = 0.484\nsamples = 83\nvalue = [75, 0, 0, 0, 52, 0, 0, 0, 0]", fillcolor="#f7d8c2"] ;
549 -> 555 ;
556 [label="OUT_BYTES <= 0.005\ngini = 0.397\nsamples = 31\nvalue = [40, 0, 0, 0, 15, 0, 0, 0, 0]", fillcolor="#efb083"] ;
555 -> 556 ;
557 [label="gini = 0.464\nsamples = 24\nvalue = [26, 0, 0, 0, 15, 0, 0, 0, 0]", fillcolor="#f4caab"] ;
556 -> 557 ;
558 [label="gini = 0.0\nsamples = 7\nvalue = [14, 0, 0, 0, 0, 0, 0, 0, 0]", fillcolor="#e58139"] ;
556 -> 558 ;
559 [label="FLOW_DURATION_MILLISECONDS <= 0.0\ngini = 0.5\nsamples = 52\nvalue = [35, 0, 0, 0, 37, 0, 0, 0, 0]", fillcolor="#f4fdfe"] ;
555 -> 559 ;
560 [label="IN_BYTES <= 0.001\ngini = 0.478\nsamples = 38\nvalue = [32, 0, 0, 0, 21, 0, 0, 0, 0]", fillcolor="#f6d4bb"] ;
559 -> 560 ;
561 [label="L4_SRC_PORT <= 0.764\ngini = 0.418\nsamples = 27\nvalue = [26, 0, 0, 0, 11, 0, 0, 0, 0]", fillcolor="#f0b68d"] ;
560 -> 561 ;
562 [label="gini = 0.49\nsamples = 12\nvalue = [6, 0, 0, 0, 8, 0, 0, 0, 0]", fillcolor="#cef5f8"] ;
561 -> 562 ;
563 [label="gini = 0.227\nsamples = 15\nvalue = [20, 0, 0, 0, 3, 0, 0, 0, 0]", fillcolor="#e99457"] ;
561 -> 563 ;
564 [label="gini = 0.469\nsamples = 11\nvalue = [6, 0, 0, 0, 10, 0, 0, 0, 0]", fillcolor="#b0eff5"] ;
560 -> 564 ;
565 [label="gini = 0.266\nsamples = 14\nvalue = [3, 0, 0, 0, 16, 0, 0, 0, 0]", fillcolor="#5edeea"] ;
559 -> 565 ;
566 [label="gini = 0.36\nsamples = 8\nvalue = [4, 0, 0, 0, 13, 0, 0, 0, 0]", fillcolor="#76e3ed"] ;
548 -> 566 ;
567 [label="FLOW_DURATION_MILLISECONDS <= 0.0\ngini = 0.479\nsamples = 111\nvalue = [69, 0, 0, 0, 105, 0, 0, 0, 0]", fillcolor="#bbf1f6"] ;
547 -> 567 ;
568 [label="gini = 0.49\nsamples = 18\nvalue = [16, 0, 0, 0, 12, 0, 0, 0, 0]", fillcolor="#f8e0ce"] ;
567 -> 568 ;
569 [label="FLOW_DURATION_MILLISECONDS <= 0.0\ngini = 0.462\nsamples = 93\nvalue = [53, 0, 0, 0, 93, 0, 0, 0, 0]", fillcolor="#aaeef4"] ;
567 -> 569 ;
570 [label="gini = 0.0\nsamples = 2\nvalue = [0, 0, 0, 0, 5, 0, 0, 0, 0]", fillcolor="#39d7e5"] ;
569 -> 570 ;
571 [label="IN_PKTS <= 0.002\ngini = 0.469\nsamples = 91\nvalue = [53, 0, 0, 0, 88, 0, 0, 0, 0]", fillcolor="#b0eff5"] ;
569 -> 571 ;
572 [label="FLOW_DURATION_MILLISECONDS <= 0.0\ngini = 0.49\nsamples = 72\nvalue = [46, 0, 0, 0, 61, 0, 0, 0, 0]", fillcolor="#cef5f9"] ;
571 -> 572 ;
573 [label="FLOW_DURATION_MILLISECONDS <= 0.0\ngini = 0.499\nsamples = 64\nvalue = [44, 0, 0, 0, 48, 0, 0, 0, 0]", fillcolor="#effcfd"] ;
572 -> 573 ;
574 [label="FLOW_DURATION_MILLISECONDS <= 0.0\ngini = 0.449\nsamples = 36\nvalue = [17, 0, 0, 0, 33, 0, 0, 0, 0]", fillcolor="#9fecf2"] ;
573 -> 574 ;
575 [label="IN_BYTES <= 0.001\ngini = 0.488\nsamples = 29\nvalue = [16, 0, 0, 0, 22, 0, 0, 0, 0]", fillcolor="#c9f4f8"] ;
574 -> 575 ;
576 [label="gini = 0.426\nsamples = 9\nvalue = [9, 0, 0, 0, 4, 0, 0, 0, 0]", fillcolor="#f1b991"] ;
575 -> 576 ;
577 [label="gini = 0.403\nsamples = 20\nvalue = [7, 0, 0, 0, 18, 0, 0, 0, 0]", fillcolor="#86e7ef"] ;
575 -> 577 ;
578 [label="gini = 0.153\nsamples = 7\nvalue = [1, 0, 0, 0, 11, 0, 0, 0, 0]", fillcolor="#4bdbe7"] ;
574 -> 578 ;
579 [label="IN_PKTS <= 0.001\ngini = 0.459\nsamples = 28\nvalue = [27, 0, 0, 0, 15, 0, 0, 0, 0]", fillcolor="#f3c7a7"] ;
573 -> 579 ;
580 [label="gini = 0.0\nsamples = 3\nvalue = [0, 0, 0, 0, 7, 0, 0, 0, 0]", fillcolor="#39d7e5"] ;
579 -> 580 ;
581 [label="IN_BYTES <= 0.001\ngini = 0.353\nsamples = 25\nvalue = [27, 0, 0, 0, 8, 0, 0, 0, 0]", fillcolor="#eda674"] ;
579 -> 581 ;
582 [label="gini = 0.231\nsamples = 22\nvalue = [26, 0, 0, 0, 4, 0, 0, 0, 0]", fillcolor="#e99457"] ;
581 -> 582 ;
583 [label="gini = 0.32\nsamples = 3\nvalue = [1, 0, 0, 0, 4, 0, 0, 0, 0]", fillcolor="#6ae1ec"] ;
581 -> 583 ;
584 [label="gini = 0.231\nsamples = 8\nvalue = [2, 0, 0, 0, 13, 0, 0, 0, 0]", fillcolor="#57dde9"] ;
572 -> 584 ;
585 [label="gini = 0.327\nsamples = 19\nvalue = [7, 0, 0, 0, 27, 0, 0, 0, 0]", fillcolor="#6ce1ec"] ;
571 -> 585 ;
586 [label="OUT_PKTS <= 0.001\ngini = 0.448\nsamples = 39\nvalue = [43, 0, 0, 0, 22, 0, 0, 0, 0]", fillcolor="#f2c19e"] ;
546 -> 586 ;
587 [label="gini = 0.463\nsamples = 6\nvalue = [4, 0, 0, 0, 7, 0, 0, 0, 0]", fillcolor="#aaeef4"] ;
586 -> 587 ;
588 [label="FLOW_DURATION_MILLISECONDS <= 0.001\ngini = 0.401\nsamples = 33\nvalue = [39, 0, 0, 0, 15, 0, 0, 0, 0]", fillcolor="#efb185"] ;
586 -> 588 ;
589 [label="OUT_BYTES <= 0.005\ngini = 0.176\nsamples = 26\nvalue = [37, 0, 0, 0, 4, 0, 0, 0, 0]", fillcolor="#e88f4e"] ;
588 -> 589 ;
590 [label="gini = 0.0\nsamples = 1\nvalue = [0, 0, 0, 0, 1, 0, 0, 0, 0]", fillcolor="#39d7e5"] ;
589 -> 590 ;
591 [label="IN_BYTES <= 0.001\ngini = 0.139\nsamples = 25\nvalue = [37, 0, 0, 0, 3, 0, 0, 0, 0]", fillcolor="#e78b49"] ;
589 -> 591 ;
592 [label="gini = 0.278\nsamples = 13\nvalue = [15, 0, 0, 0, 3, 0, 0, 0, 0]", fillcolor="#ea9a61"] ;
591 -> 592 ;
593 [label="gini = 0.0\nsamples = 12\nvalue = [22, 0, 0, 0, 0, 0, 0, 0, 0]", fillcolor="#e58139"] ;
591 -> 593 ;
594 [label="gini = 0.26\nsamples = 7\nvalue = [2, 0, 0, 0, 11, 0, 0, 0, 0]", fillcolor="#5ddeea"] ;
588 -> 594 ;
595 [label="gini = 0.252\nsamples = 19\nvalue = [23, 0, 0, 0, 4, 0, 0, 0, 0]", fillcolor="#ea975b"] ;
545 -> 595 ;
596 [label="gini = 0.117\nsamples = 10\nvalue = [1, 0, 0, 0, 15, 0, 0, 0, 0]", fillcolor="#46dae7"] ;
544 -> 596 ;
597 [label="OUT_BYTES <= 0.008\ngini = 0.426\nsamples = 102\nvalue = [115, 0, 0, 0, 51, 0, 0, 0, 0]", fillcolor="#f1b991"] ;
475 -> 597 ;
598 [label="FLOW_DURATION_MILLISECONDS <= 0.0\ngini = 0.371\nsamples = 70\nvalue = [92, 0, 0, 0, 30, 0, 0, 0, 0]", fillcolor="#edaa7a"] ;
597 -> 598 ;
599 [label="FLOW_DURATION_MILLISECONDS <= 0.0\ngini = 0.317\nsamples = 55\nvalue = [73, 0, 0, 0, 18, 0, 0, 0, 0]", fillcolor="#eba06a"] ;
598 -> 599 ;
600 [label="gini = 0.452\nsamples = 18\nvalue = [19, 0, 0, 0, 10, 0, 0, 0, 0]", fillcolor="#f3c3a1"] ;
599 -> 600 ;
601 [label="FLOW_DURATION_MILLISECONDS <= 0.0\ngini = 0.225\nsamples = 37\nvalue = [54, 0, 0, 0, 8, 0, 0, 0, 0]", fillcolor="#e99456"] ;
599 -> 601 ;
602 [label="gini = 0.0\nsamples = 9\nvalue = [13, 0, 0, 0, 0, 0, 0, 0, 0]", fillcolor="#e58139"] ;
601 -> 602 ;
603 [label="FLOW_DURATION_MILLISECONDS <= 0.0\ngini = 0.273\nsamples = 28\nvalue = [41, 0, 0, 0, 8, 0, 0, 0, 0]", fillcolor="#ea9a60"] ;
601 -> 603 ;
604 [label="gini = 0.0\nsamples = 2\nvalue = [0, 0, 0, 0, 3, 0, 0, 0, 0]", fillcolor="#39d7e5"] ;
603 -> 604 ;
605 [label="L4_SRC_PORT <= 0.927\ngini = 0.194\nsamples = 26\nvalue = [41, 0, 0, 0, 5, 0, 0, 0, 0]", fillcolor="#e89051"] ;
603 -> 605 ;
606 [label="gini = 0.229\nsamples = 21\nvalue = [33, 0, 0, 0, 5, 0, 0, 0, 0]", fillcolor="#e99457"] ;
605 -> 606 ;
607 [label="gini = 0.0\nsamples = 5\nvalue = [8, 0, 0, 0, 0, 0, 0, 0, 0]", fillcolor="#e58139"] ;
605 -> 607 ;
608 [label="gini = 0.475\nsamples = 15\nvalue = [19, 0, 0, 0, 12, 0, 0, 0, 0]", fillcolor="#f5d1b6"] ;
598 -> 608 ;
609 [label="OUT_BYTES <= 0.009\ngini = 0.499\nsamples = 32\nvalue = [23, 0, 0, 0, 21, 0, 0, 0, 0]", fillcolor="#fdf4ee"] ;
597 -> 609 ;
610 [label="gini = 0.483\nsamples = 20\nvalue = [11, 0, 0, 0, 16, 0, 0, 0, 0]", fillcolor="#c1f2f7"] ;
609 -> 610 ;
611 [label="gini = 0.415\nsamples = 12\nvalue = [12, 0, 0, 0, 5, 0, 0, 0, 0]", fillcolor="#f0b58b"] ;
609 -> 611 ;
612 [label="IPV4_DST_ADDR <= 0.265\ngini = 0.605\nsamples = 223\nvalue = [184, 109, 3, 56, 0, 0, 0, 0, 0]", fillcolor="#f7d8c2"] ;
434 -> 612 ;
613 [label="FLOW_DURATION_MILLISECONDS <= 0.0\ngini = 0.623\nsamples = 172\nvalue = [120, 106, 3, 40, 0, 0, 0, 0, 0]", fillcolor="#fdf4ee"] ;
612 -> 613 ;
614 [label="gini = 0.594\nsamples = 11\nvalue = [11, 0, 3, 7, 0, 0, 0, 0, 0]", fillcolor="#f8dbc6"] ;
613 -> 614 ;
615 [label="L4_SRC_PORT <= 0.798\ngini = 0.606\nsamples = 161\nvalue = [109, 106, 0, 33, 0, 0, 0, 0, 0]", fillcolor="#fefcfb"] ;
613 -> 615 ;
616 [label="IN_BYTES <= 0.001\ngini = 0.607\nsamples = 112\nvalue = [61, 83, 0, 25, 0, 0, 0, 0, 0]", fillcolor="#f7fad7"] ;
615 -> 616 ;
617 [label="gini = 0.517\nsamples = 24\nvalue = [5, 22, 0, 7, 0, 0, 0, 0, 0]", fillcolor="#e9f191"] ;
616 -> 617 ;
618 [label="IN_BYTES <= 0.001\ngini = 0.606\nsamples = 88\nvalue = [56, 61, 0, 18, 0, 0, 0, 0, 0]", fillcolor="#fcfdf2"] ;
616 -> 618 ;
619 [label="gini = 0.611\nsamples = 15\nvalue = [12, 4, 0, 8, 0, 0, 0, 0, 0]", fillcolor="#f8e0ce"] ;
618 -> 619 ;
620 [label="IN_BYTES <= 0.002\ngini = 0.571\nsamples = 73\nvalue = [44, 57, 0, 10, 0, 0, 0, 0, 0]", fillcolor="#f7fad9"] ;
618 -> 620 ;
621 [label="OUT_BYTES <= 0.005\ngini = 0.568\nsamples = 70\nvalue = [40, 57, 0, 10, 0, 0, 0, 0, 0]", fillcolor="#f5f8cd"] ;
620 -> 621 ;
622 [label="L4_SRC_PORT <= 0.517\ngini = 0.618\nsamples = 36\nvalue = [16, 26, 0, 10, 0, 0, 0, 0, 0]", fillcolor="#f4f8c8"] ;
621 -> 622 ;
623 [label="gini = 0.0\nsamples = 4\nvalue = [5, 0, 0, 0, 0, 0, 0, 0, 0]", fillcolor="#e58139"] ;
622 -> 623 ;
624 [label="L4_SRC_PORT <= 0.653\ngini = 0.594\nsamples = 32\nvalue = [11, 26, 0, 10, 0, 0, 0, 0, 0]", fillcolor="#eef4ac"] ;
622 -> 624 ;
625 [label="gini = 0.335\nsamples = 14\nvalue = [1, 16, 0, 3, 0, 0, 0, 0, 0]", fillcolor="#e0eb68"] ;
624 -> 625 ;
626 [label="gini = 0.658\nsamples = 18\nvalue = [10, 10, 0, 7, 0, 0, 0, 0, 0]", fillcolor="#ffffff"] ;
624 -> 626 ;
627 [label="IN_BYTES <= 0.001\ngini = 0.492\nsamples = 34\nvalue = [24, 31, 0, 0, 0, 0, 0, 0, 0]", fillcolor="#f6f9d2"] ;
621 -> 627 ;
628 [label="IN_PKTS <= 0.001\ngini = 0.499\nsamples = 25\nvalue = [21, 19, 0, 0, 0, 0, 0, 0, 0]", fillcolor="#fdf3ec"] ;
627 -> 628 ;
629 [label="gini = 0.0\nsamples = 1\nvalue = [1, 0, 0, 0, 0, 0, 0, 0, 0]", fillcolor="#e58139"] ;
628 -> 629 ;
630 [label="gini = 0.5\nsamples = 24\nvalue = [20, 19, 0, 0, 0, 0, 0, 0, 0]", fillcolor="#fef9f5"] ;
628 -> 630 ;
631 [label="gini = 0.32\nsamples = 9\nvalue = [3, 12, 0, 0, 0, 0, 0, 0, 0]", fillcolor="#e1ec6a"] ;
627 -> 631 ;
632 [label="gini = 0.0\nsamples = 3\nvalue = [4, 0, 0, 0, 0, 0, 0, 0, 0]", fillcolor="#e58139"] ;
620 -> 632 ;
633 [label="IN_PKTS <= 0.001\ngini = 0.536\nsamples = 49\nvalue = [48, 23, 0, 8, 0, 0, 0, 0, 0]", fillcolor="#f3c7a7"] ;
615 -> 633 ;
634 [label="gini = 0.375\nsamples = 6\nvalue = [2, 6, 0, 0, 0, 0, 0, 0, 0]", fillcolor="#e4ee7b"] ;
633 -> 634 ;
635 [label="FLOW_DURATION_MILLISECONDS <= 0.002\ngini = 0.51\nsamples = 43\nvalue = [46, 17, 0, 8, 0, 0, 0, 0, 0]", fillcolor="#f1bb95"] ;
633 -> 635 ;
636 [label="FLOW_DURATION_MILLISECONDS <= 0.0\ngini = 0.487\nsamples = 42\nvalue = [46, 17, 0, 6, 0, 0, 0, 0, 0]", fillcolor="#f0b991"] ;
635 -> 636 ;
637 [label="IN_BYTES <= 0.002\ngini = 0.411\nsamples = 25\nvalue = [32, 7, 0, 4, 0, 0, 0, 0, 0]", fillcolor="#eda876"] ;
636 -> 637 ;
638 [label="gini = 0.339\nsamples = 23\nvalue = [32, 5, 0, 3, 0, 0, 0, 0, 0]", fillcolor="#eb9e66"] ;
637 -> 638 ;
639 [label="gini = 0.444\nsamples = 2\nvalue = [0, 2, 0, 1, 0, 0, 0, 0, 0]", fillcolor="#ebf29c"] ;
637 -> 639 ;
640 [label="gini = 0.556\nsamples = 17\nvalue = [14, 10, 0, 2, 0, 0, 0, 0, 0]", fillcolor="#f8e0ce"] ;
636 -> 640 ;
641 [label="gini = 0.0\nsamples = 1\nvalue = [0, 0, 0, 2, 0, 0, 0, 0, 0]", fillcolor="#39e581"] ;
635 -> 641 ;
642 [label="L4_SRC_PORT <= 0.667\ngini = 0.367\nsamples = 51\nvalue = [64, 3, 0, 16, 0, 0, 0, 0, 0]", fillcolor="#eca571"] ;
612 -> 642 ;
643 [label="OUT_PKTS <= 0.001\ngini = 0.427\nsamples = 25\nvalue = [29, 0, 0, 13, 0, 0, 0, 0, 0]", fillcolor="#f1b992"] ;
642 -> 643 ;
644 [label="gini = 0.0\nsamples = 1\nvalue = [1, 0, 0, 0, 0, 0, 0, 0, 0]", fillcolor="#e58139"] ;
643 -> 644 ;
645 [label="gini = 0.433\nsamples = 24\nvalue = [28, 0, 0, 13, 0, 0, 0, 0, 0]", fillcolor="#f1bc95"] ;
643 -> 645 ;
646 [label="FLOW_DURATION_MILLISECONDS <= 0.001\ngini = 0.261\nsamples = 26\nvalue = [35, 3, 0, 3, 0, 0, 0, 0, 0]", fillcolor="#e99558"] ;
642 -> 646 ;
647 [label="OUT_BYTES <= 0.005\ngini = 0.188\nsamples = 25\nvalue = [35, 1, 0, 3, 0, 0, 0, 0, 0]", fillcolor="#e88f4f"] ;
646 -> 647 ;
648 [label="gini = 0.148\nsamples = 24\nvalue = [35, 1, 0, 2, 0, 0, 0, 0, 0]", fillcolor="#e78c4a"] ;
647 -> 648 ;
649 [label="gini = 0.0\nsamples = 1\nvalue = [0, 0, 0, 1, 0, 0, 0, 0, 0]", fillcolor="#39e581"] ;
647 -> 649 ;
650 [label="gini = 0.0\nsamples = 1\nvalue = [0, 2, 0, 0, 0, 0, 0, 0, 0]", fillcolor="#d7e539"] ;
646 -> 650 ;
651 [label="gini = 0.257\nsamples = 20\nvalue = [5, 0, 28, 0, 0, 0, 0, 0, 0]", fillcolor="#80ea5c"] ;
433 -> 651 ;
652 [label="IPV4_SRC_ADDR <= 0.788\ngini = 0.092\nsamples = 558\nvalue = [835, 36, 0, 1, 4, 0, 0, 0, 1]", fillcolor="#e68743"] ;
312 -> 652 ;
653 [label="IN_BYTES <= 0.011\ngini = 0.016\nsamples = 480\nvalue = [745, 0, 0, 1, 4, 0, 0, 0, 1]", fillcolor="#e5823b"] ;
652 -> 653 ;
654 [label="L7_PROTO <= 0.536\ngini = 0.011\nsamples = 479\nvalue = [745, 0, 0, 1, 2, 0, 0, 0, 1]", fillcolor="#e5823a"] ;
653 -> 654 ;
655 [label="FLOW_DURATION_MILLISECONDS <= 0.0\ngini = 0.008\nsamples = 478\nvalue = [745, 0, 0, 1, 2, 0, 0, 0, 0]", fillcolor="#e5823a"] ;
654 -> 655 ;
656 [label="gini = 0.0\nsamples = 1\nvalue = [0, 0, 0, 1, 0, 0, 0, 0, 0]", fillcolor="#39e581"] ;
655 -> 656 ;
657 [label="IN_BYTES <= 0.002\ngini = 0.005\nsamples = 477\nvalue = [745, 0, 0, 0, 2, 0, 0, 0, 0]", fillcolor="#e5813a"] ;
655 -> 657 ;
658 [label="gini = 0.0\nsamples = 427\nvalue = [671, 0, 0, 0, 0, 0, 0, 0, 0]", fillcolor="#e58139"] ;
657 -> 658 ;
659 [label="L4_SRC_PORT <= 0.593\ngini = 0.051\nsamples = 50\nvalue = [74, 0, 0, 0, 2, 0, 0, 0, 0]", fillcolor="#e6843e"] ;
657 -> 659 ;
660 [label="gini = 0.26\nsamples = 9\nvalue = [11, 0, 0, 0, 2, 0, 0, 0, 0]", fillcolor="#ea985d"] ;
659 -> 660 ;
661 [label="gini = 0.0\nsamples = 41\nvalue = [63, 0, 0, 0, 0, 0, 0, 0, 0]", fillcolor="#e58139"] ;
659 -> 661 ;
662 [label="gini = 0.0\nsamples = 1\nvalue = [0, 0, 0, 0, 0, 0, 0, 0, 1]", fillcolor="#e53964"] ;
654 -> 662 ;
663 [label="gini = 0.0\nsamples = 1\nvalue = [0, 0, 0, 0, 2, 0, 0, 0, 0]", fillcolor="#39d7e5"] ;
653 -> 663 ;
664 [label="IN_BYTES <= 0.002\ngini = 0.408\nsamples = 78\nvalue = [90, 36, 0, 0, 0, 0, 0, 0, 0]", fillcolor="#efb388"] ;
652 -> 664 ;
665 [label="gini = 0.0\nsamples = 34\nvalue = [53, 0, 0, 0, 0, 0, 0, 0, 0]", fillcolor="#e58139"] ;
664 -> 665 ;
666 [label="L4_SRC_PORT <= 0.652\ngini = 0.5\nsamples = 44\nvalue = [37, 36, 0, 0, 0, 0, 0, 0, 0]", fillcolor="#fefcfa"] ;
664 -> 666 ;
667 [label="gini = 0.0\nsamples = 3\nvalue = [0, 3, 0, 0, 0, 0, 0, 0, 0]", fillcolor="#d7e539"] ;
666 -> 667 ;
668 [label="OUT_BYTES <= 0.004\ngini = 0.498\nsamples = 41\nvalue = [37, 33, 0, 0, 0, 0, 0, 0, 0]", fillcolor="#fcf1ea"] ;
666 -> 668 ;
669 [label="gini = 0.0\nsamples = 1\nvalue = [3, 0, 0, 0, 0, 0, 0, 0, 0]", fillcolor="#e58139"] ;
668 -> 669 ;
670 [label="IN_PKTS <= 0.003\ngini = 0.5\nsamples = 40\nvalue = [34, 33, 0, 0, 0, 0, 0, 0, 0]", fillcolor="#fefbf9"] ;
668 -> 670 ;
671 [label="L4_SRC_PORT <= 0.672\ngini = 0.493\nsamples = 27\nvalue = [18, 23, 0, 0, 0, 0, 0, 0, 0]", fillcolor="#f6f9d4"] ;
670 -> 671 ;
672 [label="gini = 0.0\nsamples = 3\nvalue = [6, 0, 0, 0, 0, 0, 0, 0, 0]", fillcolor="#e58139"] ;
671 -> 672 ;
673 [label="gini = 0.451\nsamples = 24\nvalue = [12, 23, 0, 0, 0, 0, 0, 0, 0]", fillcolor="#ecf3a0"] ;
671 -> 673 ;
674 [label="gini = 0.473\nsamples = 13\nvalue = [16, 10, 0, 0, 0, 0, 0, 0, 0]", fillcolor="#f5d0b5"] ;
670 -> 674 ;
}